tree
version=v3
num_class=1
num_tree_per_iteration=1
label_index=0
max_feature_idx=12
objective=regression
feature_names=Column_0 Column_1 Column_2 Column_3 Column_4 Column_5 Column_6 Column_7 Column_8 Column_9 Column_10 Column_11 Column_12
feature_infos=[0.0063200000000000001:88.976200000000006] [0:100] [0.46000000000000002:27.739999999999998] [0:1] [0.38500000000000001:0.871] [3.5609999999999999:8.7799999999999994] [2.8999999999999999:100] [1.1295999999999999:12.1265] [1:24] [187:711] [12.6:22] [0.32000000000000001:396.89999999999998] [1.73:37.969999999999999]
tree_sizes=1295 1324 1327 1329 1238 1332 1249 1332 1171 1336 1249 1252 1339 1255 1253 1334 1175 1247 1421 1261

Tree=0
num_leaves=15
num_cat=0
split_feature=12 5 12 5 0 7 10 12 5 12 12 9 5 2
split_gain=14506.6 5576.27 2183.85 1429.25 896.209 271.943 164.923 142.868 135.38 124.759 108.99 66.2064 30.9928 15.4133
threshold=8.9850000000000012 7.4370000000000003 14.795000000000002 6.6805000000000012 6.881660000000001 4.2391000000000014 19.900000000000002 21.490000000000006 6.3825000000000012 5.3600000000000003 9.9500000000000011 302.00000000000006 6.2245000000000008 9.9550000000000018
decision_type=2 2 2 2 2 2 2 2 2 2 2 2 2 2
left_child=1 3 10 5 6 -1 -4 -6 -7 -5 -2 -12 13 -13
right_child=2 -3 4 9 7 8 -8 -9 -10 -11 11 12 -14 -15
leaf_value=22.649036670167806 22.398846193482221 23.521937103941664 22.18727476651852 22.957391681013764 21.921364724315858 22.34654184664625 22.027512868951746 21.760167629247185 22.522131914478955 22.784846213669567 22.338423125380345 22.194304533313701 22.295465247148833 22.250971189773072
leaf_weight=21 20 22 35 22 27 23 30 28 21 20 26 24 21 24
leaf_count=21 20 22 35 22 27 23 30 28 21 20 26 24 21 24
internal_value=0 8.61602 -4.5819 5.63478 -7.56615 2.69692 -5.05231 -10.5371 1.28385 10.1815 -1.46789 -1.91457 -2.42702 -2.87032
internal_weight=0 129 235 107 120 65 65 55 44 42 115 95 69 48
internal_count=364 129 235 107 120 65 65 55 44 42 115 95 69 48
shrinkage=1


Tree=1
num_leaves=15
num_cat=0
split_feature=12 5 12 5 0 7 10 12 5 12 5 10 7 6
split_gain=13092.2 5032.58 1971.81 1289.9 792.164 245.429 158.248 128.938 122.18 112.595 112.478 123.505 38.1009 2.94585
threshold=8.9850000000000012 7.4370000000000003 14.915000000000001 6.6805000000000012 6.881660000000001 4.2391000000000014 19.900000000000002 21.490000000000006 6.3825000000000012 5.3600000000000003 6.0550000000000006 20.150000000000002 4.6243500000000006 76.950000000000017
decision_type=2 2 2 2 2 2 2 2 2 2 2 2 2 2
left_child=1 3 10 5 6 -1 -4 -6 -7 -5 12 -12 13 -2
right_child=2 -3 4 9 7 8 -8 -9 -10 -11 11 -13 -14 -15
leaf_value=0.26873863801537529 -0.077828637473285209 1.0979940744963559 -0.1699351714338575 0.56167589100924409 -0.4225497175146033 -0.018631441753519617 -0.32941135274512429 -0.57568697333335883 0.14817912010919482 0.39775769770145419 0.045658794355638806 -0.1037082097218372 -0.17573951452970504 -0.10464147386096774
leaf_weight=21 20 22 35 22 27 23 28 28 21 20 31 25 20 21
leaf_count=21 20 22 35 22 27 23 28 28 21 20 31 25 20 21
internal_value=0 8.18522 -4.3528 5.35304 -7.23717 2.56208 -4.81627 -10.0102 1.21965 9.67239 -1.44378 -0.420458 -2.38322 -1.83124
internal_weight=0 129 235 107 118 65 63 55 44 42 117 56 61 41
internal_count=364 129 235 107 118 65 63 55 44 42 117 56 61 41
shrinkage=0.05


Tree=2
num_leaves=15
num_cat=0
split_feature=12 5 12 5 0 7 0 12 12 5 12 9 12 9
split_gain=11815.8 4541.9 1779.6 1166.17 729.622 232.381 138.946 116.367 109.468 97.1595 95.1298 57.4462 27.1979 40.8679
threshold=8.9850000000000012 7.4370000000000003 14.795000000000002 6.6460000000000008 6.881660000000001 4.2391000000000014 0.66008000000000011 21.490000000000006 5.3600000000000003 6.3825000000000012 9.9500000000000011 302.00000000000006 13.345000000000001 387.50000000000006
decision_type=2 2 2 2 2 2 2 2 2 2 2 2 2 2
left_child=1 3 10 5 6 -1 -4 -6 -5 -7 -2 -12 13 -13
right_child=2 -3 4 8 7 9 -8 -9 -10 -11 11 12 -14 -15
leaf_value=0.25530170553940396 0.032906501777470114 1.0430943792516536 -0.16642331794688578 0.53359209028157328 -0.40142221980624737 -0.017699869519666487 -0.31476954177573879 -0.54690260546548031 0.37399432715915504 0.13298445031046868 -0.02373141205081573 -0.14146941724148662 -0.16007397953420877 -0.049664449719367204
leaf_weight=21 20 22 38 22 27 23 27 28 21 20 26 22 20 27
leaf_count=21 20 22 38 22 27 23 27 28 21 20 26 22 20 27
internal_value=0 7.77596 -4.13516 5.08539 -6.82909 2.37935 -4.56088 -9.5097 9.11298 1.04772 -1.32411 -1.74142 -2.21877 -1.81766
internal_weight=0 129 235 107 120 64 65 55 43 43 115 95 69 49
internal_count=364 129 235 107 120 64 65 55 43 43 115 95 69 49
shrinkage=0.05


Tree=3
num_leaves=15
num_cat=0
split_feature=12 5 12 5 0 7 0 12 5 12 12 5 7 9
split_gain=10663.7 4099.07 1606.8 1052.47 646.052 209.723 138.611 100.794 99.2671 117.01 98.7949 87.6865 33.8798 6.88058
threshold=8.9850000000000012 7.4370000000000003 14.915000000000001 6.6460000000000008 7.2087650000000005 4.2391000000000014 0.83290000000000008 21.490000000000006 6.0985000000000005 11.730000000000002 5.3600000000000003 6.3825000000000012 4.4333500000000017 387.50000000000006
decision_type=2 2 2 2 2 2 2 2 2 2 2 2 2 2
left_child=1 3 8 5 6 -1 -4 -6 12 -10 -5 -7 13 -2
right_child=2 -3 4 10 7 11 -8 -9 9 -11 -12 -13 -14 -15
leaf_value=0.2425366234921274 -0.057299782037734982 0.9909396480430257 -0.15861119811196586 0.50691248774528508 -0.38606963729858401 -0.016814876141269568 -0.30460712868591838 -0.52539742257859978 0.058675687397933676 -0.093057269727190348 0.35529459746820585 0.12633522510528566 -0.15299519899611672 -0.097820835289630037
leaf_weight=21 20 22 37 22 25 23 29 27 27 24 21 20 24 22
leaf_count=21 20 22 37 22 25 23 29 27 27 24 21 20 24 22
internal_value=0 7.38716 -3.92841 4.83112 -6.53215 2.26038 -4.45522 -9.16826 -1.30241 -0.254561 8.65733 0.995331 -2.1121 -1.5705
internal_weight=0 129 235 107 118 64 66 52 117 51 43 43 66 42
internal_count=364 129 235 107 118 64 66 52 117 51 43 43 66 42
shrinkage=0.05


Tree=4
num_leaves=14
num_cat=0
split_feature=12 5 12 0 5 12 0 12 12 6 5 12 7
split_gain=9641.13 3238.4 1912.17 654.153 648.687 213.578 144.403 107.554 102.68 77.6692 50.1115 22.002 12.3448
threshold=7.8100000000000014 7.4370000000000003 14.365 6.881660000000001 6.6805000000000012 9.6050000000000022 0.19729500000000003 6.2800000000000002 21.490000000000006 91.65000000000002 6.0985000000000005 12.035000000000002 4.3830500000000017
decision_type=2 2 2 2 2 2 2 2 2 2 2 2 2
left_child=1 4 5 6 7 -2 -4 -1 -5 -8 12 -12 -7
right_child=2 -3 3 8 -6 10 9 -9 -10 -11 11 -13 -14
leaf_value=0.22426760139919463 0.083903849260373559 0.94139265147122464 -0.084483204551506791 -0.35944487164760464 0.41591992142340661 -0.077033467216910248 -0.16832979688354369 0.073394279308720597 -0.4936818761484964 -0.29286887280402646 0.015551032712683084 -0.058614310659468177 -0.12653912690351718
leaf_weight=21 33 22 20 29 38 34 21 27 28 31 20 20 20
leaf_count=21 33 22 20 29 38 34 21 27 28 31 20 20 20
internal_value=0 8.00127 -3.26507 -5.97682 5.23168 -0.510608 -3.9732 2.78803 -8.50772 -4.85148 -1.27898 -0.430633 -1.90738
internal_weight=0 108 256 129 86 127 72 48 57 52 94 40 54
internal_count=364 108 256 129 86 127 72 48 57 52 94 40 54
shrinkage=0.05


Tree=5
num_leaves=15
num_cat=0
split_feature=12 12 5 5 4 12 12 7 5 0 10 2 0 11
split_gain=8395.09 3520.66 1190.65 892.975 590.131 298.669 284.854 261.772 110.689 75.618 58.863 38.5553 25.7014 20.6571
threshold=5.2700000000000005 14.795000000000002 6.7760000000000007 7.1475000000000009 0.6070000000000001 19.650000000000002 9.6950000000000021 3.7358000000000007 6.1445000000000007 0.36364500000000005 18.650000000000002 5.2550000000000017 6.0800600000000005 385.70000000000005
decision_type=2 2 2 2 2 2 2 2 2 2 2 2 2 2
left_child=3 2 6 -1 9 12 7 -2 -9 -3 -8 -10 -6 -12
right_child=1 4 -4 -5 5 -7 10 8 11 -11 13 -13 -14 -15
leaf_value=0.44813062548637395 0.22110246881133033 -0.078417454287409788 0.36718427922863228 0.88893077015876776 -0.2351358097791672 -0.46898019619477105 -0.0077658312935982984 -0.073194318738850683 0.019574188254773618 -0.21135202653706076 -0.13019814460497836 0.11549440018832685 -0.31433409963335313 -0.066746463845002241
leaf_weight=27 21 23 26 20 20 39 31 22 22 20 23 20 21 29
leaf_count=27 21 23 26 20 20 39 31 22 22 20 23 20 21 29
internal_value=0 -1.60728 1.04631 12.7141 -5.79262 -7.39849 0.0717204 1.35845 0.353202 -2.80495 -1.24601 1.30501 -5.51402 -1.89623
internal_weight=0 317 194 47 123 80 168 85 64 43 83 42 41 52
internal_count=364 317 194 47 123 80 168 85 64 43 83 42 41 52
shrinkage=0.05


Tree=6
num_leaves=14
num_cat=0
split_feature=5 12 5 4 12 12 12 8 0 12 7 11 7
split_gain=7600.35 2925.95 1204.35 538 530.894 279.039 209.201 251.492 117.728 110.792 48.0507 27.934 23.5857
threshold=6.8505000000000011 14.480000000000002 7.4370000000000003 0.6070000000000001 5.6900000000000004 19.650000000000002 9.6950000000000021 5.5000000000000009 0.22463500000000003 7.580000000000001 3.9396000000000004 352.21500000000009 2.4218000000000006
decision_type=2 2 2 2 2 2 2 2 2 2 2 2 2
left_child=1 4 -2 8 -1 11 7 9 -3 -6 12 -5 -8
right_child=2 3 -4 5 6 -7 10 -9 -10 -11 -12 -13 -14
leaf_value=0.27820014272417343 0.36138811336878018 -0.043841204242780811 0.83104443550109863 -0.30405798077583318 0.076601866190321749 -0.44553119555497783 -0.053707754126061574 0.21514924126011983 -0.20519762085034299 -0.060927140216032662 -0.1000862843774516 -0.22326159891874894 0.017897647534213638
leaf_weight=21 39 20 21 20 32 39 23 21 26 27 29 23 23
leaf_count=21 39 20 21 20 32 39 23 21 26 27 29 23 23
internal_value=0 -1.80023 10.5154 -5.4381 0.845503 -6.97363 0.206223 1.33109 -2.70085 0.273297 -0.993636 -5.21683 -0.358101
internal_weight=0 304 60 128 176 82 155 80 46 59 75 43 46
internal_count=364 304 60 128 176 82 155 80 46 59 75 43 46
shrinkage=0.05


Tree=7
num_leaves=15
num_cat=0
split_feature=12 12 12 6 7 4 12 10 12 9 0 6 0 0
split_gain=6966.83 2863.51 559.604 594.588 496.062 482.169 239.139 125.613 99.9275 70.2335 63.0547 28.5835 25.1287 14.4334
threshold=5.2700000000000005 14.795000000000002 9.9500000000000011 79.450000000000017 4.1205000000000007 0.6070000000000001 19.650000000000002 19.150000000000002 7.1300000000000008 298.00000000000006 0.36364500000000005 74.350000000000009 6.0800600000000005 1.5659200000000002
decision_type=2 2 2 2 2 2 2 2 2 2 2 2 2 2
left_child=4 2 3 7 -1 10 12 8 -2 -4 -3 -11 -7 -13
right_child=1 5 9 -5 -6 6 -8 -9 -10 11 -12 13 -14 -15
leaf_value=0.76774334251880649 0.17702242249761185 -0.070550648797222448 0.024728929920291361 0.34010696963717546 0.43920200124934872 -0.21019602984189989 -0.42325461827791655 -0.035615098327398301 0.046702445234711232 -0.030475141955539589 -0.19194100826978686 -0.13233610121976763 -0.28850701366152082 -0.072986066136509181
leaf_weight=20 24 23 22 24 27 20 39 25 38 20 20 21 21 20
leaf_count=20 24 23 22 24 27 20 39 25 38 20 20 21 21 20
internal_value=0 -1.46623 0.926925 2.39557 11.5801 -5.24081 -6.69237 1.17997 1.94298 -1.03717 -2.54023 -1.5896 -5.00613 -2.0677
internal_weight=0 317 194 111 47 123 80 87 62 83 43 61 41 41
internal_count=364 317 194 111 47 123 80 87 62 83 43 61 41 41
shrinkage=0.05


Tree=8
num_leaves=13
num_cat=0
split_feature=5 12 5 4 0 5 0 12 12 10 9 6
split_gain=6340.73 2364.06 1021.69 485.979 456.842 292.726 132.18 90.4233 67.335 46.5743 36.4482 14.5524
threshold=6.8505000000000011 14.480000000000002 7.4370000000000003 0.62750000000000006 7.5990150000000005 6.5475000000000012 0.66008000000000011 7.580000000000001 21.490000000000006 19.400000000000002 298.00000000000006 93.950000000000017
decision_type=2 2 2 2 2 2 2 2 2 2 2 2
left_child=1 3 -2 5 6 7 -3 -1 -6 10 -9 -8
right_child=2 4 -4 -5 8 -7 11 9 -10 -11 -12 -13
leaf_value=0.04307392236283597 0.32870029595752182 -0.09905168116092683 0.76127770628247948 0.26861193686723711 -0.30556908822976631 0.14718548470797641 -0.1998247028887272 0.019389186128973963 -0.42049519872665408 -0.10225480875420956 -0.059197947231587028 -0.25941893330642157
leaf_weight=34 39 36 21 20 26 30 20 25 25 31 36 21
leaf_count=34 39 36 21 20 26 30 20 25 25 31 36 21
internal_value=0 -1.6468 9.60205 0.731366 -4.91677 0.136382 -3.37926 -0.532029 -7.23811 -1.04702 -0.539802 -4.60697
internal_weight=0 304 60 176 128 156 77 126 51 92 61 41
internal_count=364 304 60 176 128 156 77 126 51 92 61 41
shrinkage=0.05


Tree=9
num_leaves=15
num_cat=0
split_feature=12 12 5 5 4 12 12 7 5 11 0 2 7 0
split_gain=5812.11 2326.43 802.925 638.727 390.109 197.253 195.851 233.45 82.2226 55.1674 42.2686 31.1574 26.2849 21.5105
threshold=5.2700000000000005 14.915000000000001 6.7760000000000007 7.1475000000000009 0.6070000000000001 19.650000000000002 9.9500000000000011 3.6522500000000004 6.1445000000000007 378.08500000000004 0.28957500000000008 5.2550000000000017 3.9396000000000004 6.0800600000000005
decision_type=2 2 2 2 2 2 2 2 2 2 2 2 2 2
left_child=3 2 6 -1 10 13 7 -2 -9 -8 -3 -10 -11 -6
right_child=1 4 -4 -5 5 -7 9 8 11 12 -12 -13 -14 -15
leaf_value=0.37009223760278137 0.20173877894878389 -0.064521717457544245 0.29811866036974471 0.74289547801017763 -0.19006074517965318 -0.38424455706889815 -0.12151108508848625 -0.067035056247065461 0.0059403323991732166 -0.0025844093518597741 -0.16608722075819971 0.090090350535782904 -0.070521901609996954 -0.26251483587991625
leaf_weight=27 20 21 26 20 20 39 23 24 22 35 20 22 24 21
leaf_count=27 20 21 26 20 20 39 23 24 22 35 20 22 24 21
internal_value=0 -1.3416 0.786935 10.5746 -4.78947 -6.07489 -0.00460302 1.0315 0.148186 -1.11652 -2.28132 0.960307 -0.6044 -4.54343
internal_weight=0 317 196 47 121 80 170 88 68 82 41 44 59 41
internal_count=364 317 196 47 121 80 170 88 68 82 41 44 59 41
shrinkage=0.05


Tree=10
num_leaves=14
num_cat=0
split_feature=5 4 5 5 0 5 8 6 4 0 4 9 11
split_gain=5618.92 1470.58 1038.6 503.147 377.748 179.833 132.772 111.919 96.0578 34.9255 30.7673 29.7566 4.87065
threshold=6.918000000000001 0.6695000000000001 7.4370000000000003 6.5475000000000012 9.7738350000000018 6.0550000000000006 6.5000000000000009 92.65000000000002 0.51250000000000007 5.6237200000000014 0.44600000000000006 302.00000000000006 395.06500000000005
decision_type=2 2 2 2 2 2 2 2 2 2 2 2 2
left_child=1 3 -2 5 9 6 7 11 10 -3 -7 -1 -13
right_child=2 4 -4 -5 -6 8 -8 -9 -10 -11 -12 12 -14
leaf_value=-0.044104238474168458 0.29142513410611587 -0.15232672291994095 0.73493908968838784 0.15797072006389501 -0.43111597345425534 0.0040390554517507555 0.023890436589717866 -0.21373453052795452 -0.058291259326804915 -0.24097336977720263 0.079729716383434582 -0.12840089438991115 -0.094308171905577193
leaf_weight=26 33 25 22 34 26 25 20 23 39 20 29 22 20
leaf_count=26 33 25 22 34 26 25 20 23 39 20 29 22 20
internal_value=0 -1.59363 9.37661 -0.4021 -5.58779 -0.995686 -1.8551 -2.36782 0.03006 -3.8345 0.893755 -1.72285 -2.24333
internal_weight=0 309 55 238 71 204 111 91 93 45 54 68 42
internal_count=364 309 55 238 71 204 111 91 93 45 54 68 42
shrinkage=0.05


Tree=11
num_leaves=14
num_cat=0
split_feature=12 5 7 7 5 12 11 0 6 5 5 2 6
split_gain=5240.26 2319.13 757.22 579.849 314.071 195.678 124.952 60.9816 52.4181 45.5583 39.9787 39.8222 19.9662
threshold=9.6050000000000022 7.1475000000000009 2.0037000000000007 3.1423000000000001 6.5475000000000012 17.155000000000005 372.62000000000006 14.377250000000002 92.65000000000002 6.1525000000000007 6.1525000000000007 9.9550000000000018 69.65000000000002
decision_type=2 2 2 2 2 2 2 2 2 2 2 2 2
left_child=1 3 5 -1 10 -2 -4 -7 9 11 -5 12 -8
right_child=2 -3 6 4 -6 7 8 -9 -10 -11 -12 -13 -14
leaf_value=0.36928334388881923 -0.15399801241500038 0.59748947129530072 -0.18054495028087073 -0.062491275481879716 0.18164393664582779 -0.29203025680035355 -0.062953416133920345 -0.40332666322588917 -0.12574272551215612 0.0092527431573856764 0.027096807527722734 -0.0093130089249461902 -0.12971232334772748
leaf_weight=20 21 34 28 20 38 32 24 20 26 27 33 20 21
leaf_count=20 21 34 28 20 38 32 24 20 26 27 33 20 21
internal_value=0 4.72374 -3.0266 2.51036 1.43887 -5.65629 -1.71176 -6.69673 -1.26112 -0.906799 -0.1342 -1.36034 -1.88215
internal_weight=0 145 219 111 91 73 146 52 118 92 53 65 45
internal_count=364 145 219 111 91 73 146 52 118 92 53 65 45
shrinkage=0.05


Tree=12
num_leaves=15
num_cat=0
split_feature=12 5 7 12 0 7 12 12 0 5 5 10 6 0
split_gain=4729.34 2093.02 683.391 540.412 179.074 163.245 128.012 112.882 111.082 63.8813 62.237 18.7151 13.5637 12.7494
threshold=9.6050000000000022 7.1475000000000009 2.0037000000000007 5.3600000000000003 14.377250000000002 3.6522500000000004 18.055000000000003 16.225000000000005 0.66008000000000011 6.1525000000000007 6.0550000000000006 18.750000000000004 36.000000000000007 0.22948000000000005
decision_type=2 2 2 2 2 2 2 2 2 2 2 2 2 2
left_child=1 3 4 -1 6 -5 -2 10 -9 -7 11 -4 -11 -12
right_child=2 -3 7 5 -6 9 -8 8 -10 12 13 -13 -14 -15
leaf_value=0.31383591366034969 -0.11861709656193853 0.56761500274433807 -0.058092698490182906 0.17020872723027741 -0.38790733333338395 -0.059366711319889881 -0.28086720762714262 -0.053115187301522204 -0.20305142850304644 0.077695827186107638 -0.029900026135146619 -0.11778235705569387 0.020161588266491892 0.025258653983473781
leaf_weight=27 20 34 29 23 22 20 31 21 30 21 22 24 20 20
leaf_count=27 20 34 29 23 22 20 31 21 30 21 22 24 20 20
internal_value=0 4.48756 -2.87527 2.38484 -5.37348 1.13388 -4.34479 -1.62617 -2.82626 0.277872 -0.981914 -1.70244 0.992607 -0.0726798
internal_weight=0 145 219 111 73 84 51 146 51 61 95 53 41 42
internal_count=364 145 219 111 73 84 51 146 51 61 95 53 41 42
shrinkage=0.05


Tree=13
num_leaves=14
num_cat=0
split_feature=12 12 5 5 0 8 9 6 10 10 12 5 6
split_gain=4301.62 1634.63 612.767 551.252 416.039 187.569 144.683 130.375 95.3312 68.5121 65.513 21.0811 6.74082
threshold=5.2700000000000005 13.345000000000001 6.918000000000001 7.1475000000000009 9.7738350000000018 6.5000000000000009 298.00000000000006 92.500000000000014 18.100000000000005 19.150000000000002 19.650000000000002 5.9700000000000015 58.95000000000001
decision_type=2 2 2 2 2 2 2 2 2 2 2 2 2
left_child=3 2 5 -1 7 6 8 9 -2 -3 -9 -8 -13
right_child=1 4 -4 -5 -6 -7 11 10 -10 -11 -12 12 -14
leaf_value=0.29603300034999847 0.11280127412080765 -0.013497513143912607 0.30367885909974579 0.64352459226335801 -0.32872402720354699 0.12065951363493999 -0.11220091827213766 -0.14284018278121949 -0.020432863442291477 -0.12819849625229837 -0.25009578236689173 -0.030718898028135301 -0.069431948953348657
leaf_weight=25 25 23 20 21 37 30 20 35 29 30 24 22 23
leaf_count=25 25 23 20 21 37 30 20 35 29 30 24 22 23
internal_value=0 -1.25263 0.876222 9.09341 -3.66723 0.17859 -0.384755 -2.7068 0.824992 -1.56845 -3.72939 -1.38978 -1.01011
internal_weight=0 318 169 46 149 149 119 112 54 53 59 65 45
internal_count=364 318 169 46 149 149 119 112 54 53 59 65 45
shrinkage=0.05


Tree=14
num_leaves=14
num_cat=0
split_feature=12 12 5 5 0 8 9 6 10 10 12 5 6
split_gain=3882.21 1475.25 553.022 497.505 375.475 169.281 130.576 117.664 86.0364 61.8322 59.1254 19.0257 6.08359
threshold=5.2700000000000005 13.345000000000001 6.918000000000001 7.1475000000000009 9.7738350000000018 6.5000000000000009 298.00000000000006 92.500000000000014 18.100000000000005 19.150000000000002 19.650000000000002 5.9700000000000015 58.95000000000001
decision_type=2 2 2 2 2 2 2 2 2 2 2 2 2
left_child=3 2 5 -1 7 6 8 9 -2 -3 -9 -8 -13
right_child=1 4 -4 -5 -6 -7 11 10 -10 -11 -12 12 -14
leaf_value=0.28123135149478912 0.10716120885149577 -0.012822635407033173 0.28849492488428952 0.61134837127867203 -0.31228782985661485 0.11462653808295727 -0.10659087084233761 -0.13569817503648146 -0.0194112204015255 -0.12178857410947481 -0.23759099387874208 -0.029182952625507658 -0.065960350017184796
leaf_weight=25 25 23 20 21 37 30 20 35 29 30 24 22 23
leaf_count=25 25 23 20 21 37 30 20 35 29 30 24 22 23
internal_value=0 -1.19 0.832411 8.63874 -3.48387 0.16966 -0.365517 -2.57146 0.783743 -1.49003 -3.54292 -1.32029 -0.959606
internal_weight=0 318 169 46 149 149 119 112 54 53 59 65 45
internal_count=364 318 169 46 149 149 119 112 54 53 59 65 45
shrinkage=0.05


Tree=15
num_leaves=15
num_cat=0
split_feature=5 4 5 5 0 10 4 11 8 5 4 4 7 7
split_gain=3323.6 1171.48 419.68 330.049 279.137 182.563 158.445 111.177 100.853 76.0834 69.27 64.245 33.1074 9.90338
threshold=6.9810000000000008 0.6695000000000001 6.5475000000000012 7.4370000000000003 13.441000000000001 20.950000000000003 0.60100000000000009 374.62000000000006 4.5000000000000009 6.0550000000000006 0.71550000000000014 0.51250000000000007 4.7143000000000006 5.2228500000000002
decision_type=2 2 2 2 2 2 2 2 2 2 2 2 2 2
left_child=1 2 5 -2 10 6 7 -1 -4 12 -3 13 -9 -11
right_child=3 4 8 -5 -6 -7 -8 9 -10 11 -12 -13 -14 -15
leaf_value=-0.14838377833366395 0.27798381280899048 -0.23589293438455333 0.047019378114491701 0.55049255073070524 -0.38355481949719517 -0.15669292147670474 0.097347931683063507 -0.032127112837938163 0.19765783321857455 0.078562774248421202 -0.11969953392600191 -0.052375242791392586 -0.10676598247761529 0.029948923911433667
leaf_weight=20 25 23 20 20 22 28 25 39 25 20 29 22 24 22
leaf_count=20 25 23 20 20 22 28 25 39 25 20 29 22 24 22
internal_value=0 -1.19825 -0.145062 7.98198 -4.68514 -0.765884 -0.3804 -0.77621 2.61415 -0.431097 -3.42186 0.336836 -1.21122 1.06197
internal_weight=0 319 245 45 74 200 172 147 45 127 52 64 63 42
internal_count=364 319 245 45 74 200 172 147 45 127 52 64 63 42
shrinkage=0.05


Tree=16
num_leaves=13
num_cat=0
split_feature=12 4 5 4 0 10 10 2 12 7 10 7
split_gain=3247.31 1396.13 901.571 483.591 246.905 111.159 98.7177 70.0376 56.9574 42.4972 28.7958 21.2531
threshold=9.6050000000000022 0.57400000000000007 7.1475000000000009 0.6695000000000001 13.441000000000001 18.750000000000004 17.850000000000005 8.3500000000000032 18.825000000000006 2.2085000000000004 19.150000000000002 3.8973000000000004
decision_type=2 2 2 2 2 2 2 2 2 2 2 2
left_child=1 2 6 5 8 11 -1 -7 -5 -9 -8 -2
right_child=3 -3 -4 4 -6 7 10 9 -10 -11 -12 -13
leaf_value=0.11262411369304909 0.013085982226766647 0.57528425499796876 0.38949174201488496 -0.11795518680893143 -0.36437707597559155 -0.17183526559517937 0.038884551474644292 -0.11373178512390172 -0.22331709965415625 -0.034643201942019392 -0.034954631854982481 -0.047149275322617208
leaf_weight=38 32 20 25 29 22 26 31 35 23 33 23 27
leaf_count=38 32 20 25 29 22 26 31 35 23 33 23 27
internal_value=0 3.78455 2.4647 -2.38054 -4.47927 -1.36547 1.01765 -2.04076 -3.29115 -1.50701 0.148691 -0.289586
internal_weight=0 137 117 227 74 153 92 94 52 68 54 59
internal_count=364 137 117 227 74 153 92 94 52 68 54 59
shrinkage=0.05


Tree=17
num_leaves=14
num_cat=0
split_feature=12 4 5 4 0 10 4 5 2 4 12 9 9
split_gain=2930.7 1260.01 813.668 436.441 222.832 100.321 94.9286 92.538 63.2089 53.4845 38.1236 23.4441 21.2374
threshold=9.6050000000000022 0.57400000000000007 7.1475000000000009 0.6695000000000001 13.441000000000001 18.750000000000004 0.50550000000000017 6.5475000000000012 8.3500000000000032 0.71550000000000014 15.065000000000001 298.00000000000006 298.00000000000006
decision_type=2 2 2 2 2 2 2 2 2 2 2 2 2
left_child=1 2 6 5 9 12 7 11 -7 -5 -10 -1 -2
right_child=3 -3 -4 4 -6 8 -8 -9 10 -11 -12 -13 -14
leaf_value=0.06530367565341294 0.021228241961449387 0.54652004525065423 0.37001715254783635 -0.21110131740570071 -0.34615822488611397 -0.1632435013468449 -0.042258422246033496 0.1431935409953197 -0.033027232380470999 -0.10938258535627808 -0.10793564371764659 -0.011253630947321654 -0.03947856095345581
leaf_weight=20 25 20 25 24 22 26 22 30 33 28 35 20 34
leaf_count=20 25 20 25 24 22 26 22 30 33 28 35 20 34
internal_value=0 3.59532 2.34146 -2.26151 -4.2553 -1.2972 0.966766 1.53623 -1.93872 -3.12659 -1.43166 0.5405 -0.275107
internal_weight=0 137 117 227 74 153 92 70 94 52 68 40 59
internal_count=364 137 117 227 74 153 92 70 94 52 68 40 59
shrinkage=0.05


Tree=18
num_leaves=16
num_cat=0
split_feature=5 4 7 5 5 0 10 11 6 9 10 4 8 0 11
split_gain=2457.76 869.19 329.69 272.753 264.174 202.501 154.483 119.399 66.6887 67.4259 66.1161 53.6125 29.5862 26.6294 9.68765
threshold=6.9810000000000008 0.6695000000000001 1.8075500000000002 6.5475000000000012 7.4370000000000003 13.441000000000001 19.650000000000002 383.06500000000005 68.500000000000014 278.00000000000006 17.700000000000006 0.71550000000000014 4.5000000000000009 0.16953000000000004 394.52500000000003
decision_type=2 2 2 2 2 2 2 2 2 2 2 2 2 2 2
left_child=1 2 -1 6 -2 11 8 -8 9 -4 -5 -3 -11 -10 -9
right_child=4 5 3 10 -6 -7 7 14 13 12 -12 -13 -14 -15 -16
leaf_value=0.18838981636799873 0.23485103179514411 -0.20489689111709597 0.090361371210643235 0.15419900580531076 0.4786523139476776 -0.32885030508041385 -0.20028907743593061 -0.034964099097996949 -0.018887926780042197 -0.053264740476151928 0.028732196436751456 -0.10267553384062544 0.024585849824159043 -0.093960233419029815 -0.083587630089217185
leaf_weight=20 25 23 21 21 20 22 24 20 21 26 21 29 23 27 21
leaf_count=20 25 23 21 21 20 22 24 20 21 26 21 29 23 27 21
internal_value=0 -1.03025 -0.123069 -0.468924 6.86414 -4.03376 -0.996388 -2.23433 -0.314473 0.308051 1.82931 -2.95778 -0.334453 -1.22232 -1.19738
internal_weight=0 319 245 225 45 74 183 65 118 70 42 52 49 48 41
internal_count=364 319 245 225 45 74 183 65 118 70 42 52 49 48 41
shrinkage=0.05


Tree=19
num_leaves=14
num_cat=0
split_feature=12 12 12 7 11 4 10 6 0 9 11 9 0
split_gain=2474.08 1037.1 360.485 347.245 111.145 75.6636 66.5495 53.0475 50.8138 41.7717 22.1802 19.7619 10.4694
threshold=4.7150000000000007 9.9500000000000011 20.000000000000004 2.8954500000000007 368.65500000000003 0.67500000000000016 19.150000000000002 90.15000000000002 0.33013500000000007 291.00000000000006 258.59000000000003 298.00000000000006 0.92871000000000004
decision_type=2 2 2 2 2 2 2 2 2 2 2 2 2
left_child=-1 3 4 -2 10 -4 9 8 11 -5 -3 -6 -9
right_child=1 2 5 6 7 -7 -8 12 -10 -11 -12 -13 -14
leaf_value=0.40353102559114201 0.25306665573431103 -0.17493496207520365 -0.14461144191714434 0.10539554455156984 -0.0088370153525223327 -0.25654785748985082 -0.038223991202919382 -0.062709734179079532 0.0490064914293942 0.02476172108306653 -0.10218190713362262 -0.069708710842921087 -0.11386968543753029
leaf_weight=34 23 20 26 29 24 36 23 20 21 36 22 30 20
leaf_count=34 23 20 26 29 24 36 23 20 21 36 22 30 20
internal_value=0 -0.888415 -2.15051 1.60167 -1.34427 -4.19214 0.697441 -0.835792 -0.33979 1.21474 -2.73652 -0.853092 -1.76579
internal_weight=0 330 219 111 157 62 88 115 75 65 42 54 40
internal_count=364 330 219 111 157 62 88 115 75 65 42 54 40
shrinkage=0.05


end of trees

feature importances:
Column_12=66
Column_5=56
Column_0=33
Column_7=23
Column_4=21
Column_10=19
Column_6=15
Column_9=14
Column_11=10
Column_2=6
Column_8=6

parameters:
[boosting: gbdt]
[objective: regression]
[metric: l2,l1]
[tree_learner: serial]
[device_type: cpu]
[data: ]
[valid: ]
[num_iterations: 100]
[learning_rate: 0.05]
[num_leaves: 31]
[num_threads: 0]
[max_depth: -1]
[min_data_in_leaf: 20]
[min_sum_hessian_in_leaf: 0.001]
[bagging_fraction: 0.8]
[pos_bagging_fraction: 1]
[neg_bagging_fraction: 1]
[bagging_freq: 5]
[bagging_seed: 3]
[feature_fraction: 0.9]
[feature_fraction_bynode: 1]
[feature_fraction_seed: 2]
[early_stopping_round: 0]
[first_metric_only: 0]
[max_delta_step: 0]
[lambda_l1: 0]
[lambda_l2: 0]
[min_gain_to_split: 0]
[drop_rate: 0.1]
[max_drop: 50]
[skip_drop: 0.5]
[xgboost_dart_mode: 0]
[uniform_drop: 0]
[drop_seed: 4]
[top_rate: 0.2]
[other_rate: 0.1]
[min_data_per_group: 100]
[max_cat_threshold: 32]
[cat_l2: 10]
[cat_smooth: 10]
[max_cat_to_onehot: 4]
[top_k: 20]
[monotone_constraints: ]
[feature_contri: ]
[forcedsplits_filename: ]
[forcedbins_filename: ]
[refit_decay_rate: 0.9]
[cegb_tradeoff: 1]
[cegb_penalty_split: 0]
[cegb_penalty_feature_lazy: ]
[cegb_penalty_feature_coupled: ]
[verbosity: 0]
[max_bin: 255]
[max_bin_by_feature: ]
[min_data_in_bin: 3]
[bin_construct_sample_cnt: 200000]
[histogram_pool_size: -1]
[data_random_seed: 1]
[output_model: LightGBM_model.txt]
[snapshot_freq: -1]
[input_model: ]
[output_result: LightGBM_predict_result.txt]
[initscore_filename: ]
[valid_data_initscores: ]
[pre_partition: 0]
[enable_bundle: 1]
[max_conflict_rate: 0]
[is_enable_sparse: 1]
[sparse_threshold: 0.8]
[use_missing: 1]
[zero_as_missing: 0]
[two_round: 0]
[save_binary: 0]
[header: 0]
[label_column: ]
[weight_column: ]
[group_column: ]
[ignore_column: ]
[categorical_feature: ]
[predict_raw_score: 0]
[predict_leaf_index: 0]
[predict_contrib: 0]
[num_iteration_predict: -1]
[pred_early_stop: 0]
[pred_early_stop_freq: 10]
[pred_early_stop_margin: 10]
[convert_model_language: ]
[convert_model: gbdt_prediction.cpp]
[num_class: 1]
[is_unbalance: 0]
[scale_pos_weight: 1]
[sigmoid: 1]
[boost_from_average: 1]
[reg_sqrt: 0]
[alpha: 0.9]
[fair_c: 1]
[poisson_max_delta_step: 0.7]
[tweedie_variance_power: 1.5]
[max_position: 20]
[lambdamart_norm: 1]
[label_gain: ]
[metric_freq: 1]
[is_provide_training_metric: 0]
[eval_at: ]
[multi_error_top_k: 1]
[num_machines: 1]
[local_listen_port: 12400]
[time_out: 120]
[machine_list_filename: ]
[machines: ]
[gpu_platform_id: -1]
[gpu_device_id: -1]
[gpu_use_dp: 0]

end of parameters

pandas_categorical:null
