<?xml version="1.0"?>
<opencv_storage>
<opencv_ml_ann_mlp>
  <format>3</format>
  <layer_sizes>
    13 16 64 128 3</layer_sizes>
  <activation_function>SIGMOID_SYM</activation_function>
  <f_param1>1.</f_param1>
  <f_param2>1.</f_param2>
  <min_val>-9.4999999999999996e-01</min_val>
  <max_val>9.4999999999999996e-01</max_val>
  <min_val1>-9.7999999999999998e-01</min_val1>
  <max_val1>9.7999999999999998e-01</max_val1>
  <training_params>
    <train_method>BACKPROP</train_method>
    <dw_scale>1.0000000000000000e-03</dw_scale>
    <moment_scale>1.0000000000000001e-01</moment_scale>
    <term_criteria>
      <epsilon>1.0000000000000000e-04</epsilon>
      <iterations>10000</iterations></term_criteria></training_params>
  <input_scale>
    7.4124674215662067e-01 -9.5665897553699821e+00
    8.8520121524179696e-01 -2.0123810339560846e+00
    2.8611161570688020e+00 -6.7179007286118280e+00
    2.6254826861566699e-01 -5.0860850556165325e+00
    6.2485161535993559e-02 -6.1810321791404830e+00
    1.5520395838626175e+00 -3.5051261896827182e+00
    1.0161196047633667e+00 -2.0230535040854511e+00
    7.7708674429005233e+00 -2.8043506279351331e+00
    1.7899247381465786e+00 -2.7408759478568667e+00
    4.2204958584229479e-01 -2.0930620651333021e+00
    4.1145699533609115e+00 -3.9434038407505239e+00
    1.3658318906181408e+00 -3.5396899321546735e+00
    3.2143650730321743e-03 -2.3628411928050750e+00</input_scale>
  <output_scale>
    5.2631578947368418e-01 4.9999999999999994e-01 5.2631578947368418e-01
    4.9999999999999994e-01 5.2631578947368418e-01 4.9999999999999994e-01</output_scale>
  <inv_output_scale>
    1.8999999999999999e+00 -9.4999999999999996e-01
    1.8999999999999999e+00 -9.4999999999999996e-01
    1.8999999999999999e+00 -9.4999999999999996e-01</inv_output_scale>
  <weights>
    <_>
      -1.7168337644572101e-01 -4.7964334438953599e-01
      2.4430923453280209e-02 -1.1005070907198518e-01
      -1.7662768055582004e-01 -1.3556908855160751e-01
      -3.8964598937488076e-01 2.1954503984267945e-01
      -1.8875471085799336e-01 1.9318753464696159e-01
      2.4210077742215796e-01 2.8478269885453711e-01
      -1.8073679301397763e-01 6.6378523665479222e-02
      -2.9885262050525076e-02 -6.1854445952914998e-02
      -2.5230833132705115e-02 -2.7426005318298091e-01
      -1.6055236180375221e-01 2.4732454001205273e-02
      -1.2835976301736815e-01 -1.1857965058582080e-01
      -1.9139453595179756e-01 1.2150264136705344e-01
      5.5079208150291853e-02 6.4852409664531444e-02
      1.2525908388631773e-01 7.1454694292976101e-02
      -1.2402330734679870e-01 7.8486068646162449e-02
      8.6675538308232519e-02 -2.5895819457906800e-02
      -2.1151126630005565e-01 -5.2270661063884960e-01
      -2.4296015380311520e-01 -2.1881153819265467e-01
      6.0319579087497778e-03 1.0391779490238437e-01
      -1.2588397430397150e-01 2.5910973433203510e-01
      -9.2132555831609023e-02 2.5810856741902222e-01
      1.0614615665362642e-01 1.8111204463204245e-01
      -2.6099244650799430e-01 1.3174194648502463e-01
      3.1968081522028395e-02 7.7655917295168186e-02
      -1.9041730078300298e-01 4.1719797894070382e-01
      7.0302066361574350e-02 4.8271437982236393e-01
      2.7794974558560137e-01 -8.4022333174297165e-03
      3.4004212704420728e-01 -2.4106313228512241e-02
      1.5966784751960117e-01 -2.5922617306312501e-01
      -1.2042542070987262e-01 -1.2063632524445349e-01
      1.5424913351991701e-01 1.9357729754144587e-01
      1.6372803712596634e-01 -1.5414283517912789e-01
      -4.7010403788990983e-02 3.4765475174583900e-02
      2.2397932964236176e-02 -1.4784202336143243e-02
      1.0309393480312323e-01 -9.6017942487240784e-02
      -4.8037377755057571e-02 2.3852294694704786e-02
      1.1611601306810083e-01 6.3050122445388171e-02
      9.2078519458902275e-02 4.3232158240966830e-02
      6.3587601616949804e-02 -1.8500839231173843e-01
      1.2224478870737662e-01 -6.7441609490465668e-02
      1.1022246766795936e-03 2.0771752734436294e-02
      1.0633169758154079e-01 -1.4428956735607421e-01
      -1.1650796319292328e-01 2.4119096906882434e-03
      -3.6035805098327288e-02 2.9047301522414224e-02
      9.8244912784937924e-02 1.2579429794398111e-01
      -1.3389870731819153e-01 -9.0273237157764433e-02
      -1.0807517258173198e-01 -1.5505370540241299e-02
      -4.5418463519393687e-02 1.1292170543759797e-01
      3.9481916858358251e-01 1.2889493463080878e-01
      1.6965085716352429e-01 -2.2407262180437779e-01
      -2.4468045165815630e-01 -3.0507921034404802e-02
      -2.6164410938636901e-01 -1.2186750399927623e-01
      -1.7381472192812109e-01 4.6606297060646384e-01
      -2.5062347277455040e-02 -2.8966343073327178e-01
      1.8211641244225910e-01 -4.0590450185744131e-01
      1.7136177639096578e-01 1.6182583424551511e-01
      6.9307701981570019e-02 -7.4489724480491879e-03
      -3.5826618222943009e-02 2.8426560420283461e-02
      8.0852999172354358e-03 -9.4677667776323318e-02
      9.0680151103113130e-02 -1.7566732430916970e-01
      1.2632583441757755e-01 3.6637503633872637e-02
      9.9117304645750012e-02 -6.4500726737886108e-02
      2.2865413873705367e-01 -6.2274912344971102e-02
      1.6921235019095569e-02 -7.9240328880174155e-02
      6.9863026840387091e-03 3.4931997476172406e-02
      3.5771559102698407e-03 -1.0815456218527042e-01
      -9.7753811753304068e-02 4.8188038831175027e-02
      -1.1043123389755966e-01 -8.0612001981228976e-02
      3.7023395820046628e-02 2.9913506910272426e-02
      -2.0059801452924370e-03 -2.0475060526197342e-01
      6.7262663187995550e-02 2.5895043113520876e-02
      6.5441214049062460e-02 1.6255270913250125e-01
      -2.6431059955806507e-01 -4.4355476439279218e-01
      -9.1587569004528052e-02 2.3729187782038727e-01
      -2.8163701222543198e-02 9.8370715497277064e-02
      -8.6557913081600199e-02 1.6194553979986015e-01
      -6.6609625114740917e-02 3.9602534894682920e-02
      1.4805158132291518e-01 4.4602576062380556e-01
      -5.0752652348811866e-01 4.2673090116684970e-01
      -2.1352458062020410e-01 -1.4477993490038424e-01
      3.2629976633508778e-01 2.7971727675806407e-01
      1.8544326789003387e-01 -1.4211653588492740e-01
      5.3317784386933284e-02 -1.8448080451265025e-01
      -8.0014658266925762e-02 -6.1697707071896542e-02
      1.1549207483310379e-01 1.8282795305168800e-01
      6.8226126231486439e-02 -1.6396631694676445e-01
      2.9461585422475439e-01 -3.7405361092754924e-01
      -5.9542387705062622e-04 2.3409270628471851e-01
      1.5190851014881762e-01 -2.0256306507628277e-01
      1.4926122548384313e-01 -1.4942196283684164e-01
      -2.3096278710261647e-01 -1.5569433265860569e-01
      -2.4824803507708715e-01 1.4842416819861395e-01
      7.0145375617644459e-02 3.5217904140173484e-01
      1.6529000705486144e-01 -9.4620894078502271e-02
      1.8946144593308514e-01 -2.3925612609859209e-01
      -9.3918724146447252e-02 2.5375725435198787e-01
      -1.8608644388691914e-01 -7.5522663740742280e-01
      -2.5017599966291726e-01 -3.9159956002575502e-01
      -1.5632758690235327e-01 -7.6098663815429138e-02
      -5.2589454036112004e-01 3.8787392597968956e-01
      -3.4989371080345422e-01 4.7826875764250815e-01
      2.1949786188124659e-01 3.4114364531771146e-01
      -1.5017370390951795e-01 2.5285131757479001e-01
      -5.6332787678974171e-02 -2.1465566872798415e-02
      1.4172596158275619e-01 -2.8623163301959319e-02
      7.2622447430394699e-02 1.6511766936113188e-02
      4.8936357649574144e-02 1.5097157778035119e-02
      6.3460319840146939e-02 2.2741230254287701e-03
      -7.2295213172846257e-03 -6.9137284448500799e-02
      2.8946828339812620e-02 7.5333443641403403e-03
      -4.1242319077027445e-03 -1.1434688051459634e-01
      6.5991215827999892e-03 1.0573479141845155e-01</_>
    <_>
      1.2907976539566876e-01 -6.9388436624782779e-02
      -8.4705874469599415e-02 -7.2207090059620851e-02
      -2.9467791975375832e-02 -5.8247414697647423e-03
      1.4876253009621580e-02 3.5312374753843197e-02
      2.9665970846099746e-02 -2.4278352990275125e-02
      -1.9108244325299598e-01 7.8655241222324493e-02
      -5.5315656242965257e-02 1.1799082705706090e-01
      -1.5949403285329833e-01 -1.6494858186686855e-02
      9.0545315102078305e-02 -1.1741020401956002e-01
      -6.5217917933017872e-02 -1.4466321077803601e-01
      1.3659159059879789e-01 -2.0693464766421130e-01
      -1.0439156870928409e-02 -1.5247995781385798e-01
      7.1920626627949749e-02 9.3542467264245796e-02
      -2.1598599071650487e-02 1.0696786004038115e-01
      -8.5897653181653003e-02 -1.5417037188501589e-01
      -6.1918121607478699e-02 1.2101932532986315e-01
      9.1547019516824174e-02 8.9671497393503233e-02
      1.7687519711280311e-01 -1.5022687448996716e-01
      1.2103616460677903e-01 -8.8378726983637593e-02
      7.6214176446001897e-02 1.7995693616643926e-01
      1.3248803975716622e-01 1.8739901683107799e-01
      5.4821629669020426e-02 2.7462577801003512e-02
      9.2998313722516587e-02 -1.2915311193253609e-01
      3.7316161995207819e-02 -1.4467822626126354e-02
      4.2725446764926921e-02 1.8558841827726333e-01
      1.3280577487106143e-01 9.5011389192118684e-02
      -2.5929788981237906e-01 2.0746976432679337e-01
      6.6036475958578200e-02 -1.4915720398906646e-01
      1.4673603013261138e-01 3.6403107339608165e-02
      1.0181073844579053e-01 2.9367751460463290e-02
      -2.3898270365261255e-02 -7.9368581811126049e-02
      2.0549693739037439e-01 -1.6824360160331575e-01
      1.6658666330412639e-01 -9.3978451083578510e-02
      1.5218333906636866e-01 1.4173971066725402e-01
      -2.1639132014376244e-01 4.6551863510112340e-02
      -1.0418261577779869e-02 -3.6329537995404781e-02
      3.5718822346520497e-02 -1.2558610060248665e-01
      3.6447154943311605e-02 9.7181803721706428e-02
      1.8407763980379505e-01 1.8347054173643471e-01
      -1.1468796975385269e-01 -1.4142120178931017e-01
      -2.1507648669393361e-02 -2.2325680902631856e-01
      1.6315316821490636e-01 -1.2136755706360415e-01
      -1.6234173505258853e-02 -3.0581701264863559e-01
      2.1948538521772747e-02 1.7951809306728853e-02
      1.3065305787325216e-02 2.3019776323691871e-01
      -3.2514293630992619e-02 5.5079603675229218e-02
      1.0672953446246658e-01 -2.0423357337067838e-01
      -8.3877247874749358e-02 2.4663311610900582e-01
      6.9508490425666217e-02 -2.4069085864193462e-01
      7.3402434264957697e-02 -2.5227064975149571e-01
      -2.2831561757014462e-02 -3.0011641472299605e-01
      -6.8010925983852694e-02 -8.1484570747307541e-02
      7.4283213286516783e-02 1.1088423034552333e-01
      1.2035343731163872e-01 2.1226852784634287e-01
      -2.3566128185659851e-01 -2.0802151385914150e-01
      -4.6491263823062991e-02 2.1403144845889790e-01
      2.8877963602908446e-01 2.2646451718139332e-01
      -3.9960088101560748e-01 2.3734887322265372e-01
      -2.3659438293168072e-01 2.5744535644490263e-01
      -3.0712052833598730e-01 -2.2065578900824653e-01
      -1.1189215343466059e-01 1.2491764139196312e-01
      -2.0166906647661437e-01 -1.4294682475056295e-01
      3.0018977018264831e-01 -2.2982095991257606e-01
      -4.6914530323414659e-02 -1.0421306020486082e-01
      2.5698344166776126e-03 -7.5310106723501760e-02
      1.0227104380199106e-01 1.1820337433951447e-01
      -1.0217509258794948e-01 3.3500613211037165e-02
      -9.4493436448770826e-02 3.3010279593234980e-03
      -9.6014811025008667e-02 -9.5855775093805523e-02
      -1.2089987939726779e-01 2.7769254894918168e-02
      3.0344072889063229e-02 2.5891333032185812e-02
      -6.6911250966802296e-02 -1.1692292463725242e-01
      1.2801777288658236e-01 5.2223717087315276e-02
      1.7778631877826864e-01 -7.4657704960604254e-02
      1.0344059813409426e-01 -9.0601622857946443e-02
      -2.4256766359672922e-02 -9.4051722865251628e-03
      1.0932799369821179e-01 1.0227561391530375e-01
      -5.2271983294695339e-02 1.4385345517455903e-01
      -2.1207904371406565e-02 -9.2336232575513030e-02
      -4.4166784316960403e-02 3.2902884571188742e-02
      -3.5726731367510950e-02 -2.8536351666555170e-02
      1.0478612361396725e-01 5.1694314483576454e-04
      -3.8523964729747409e-02 4.1852011761049149e-02
      -6.4642765623955295e-02 -3.7718509642380944e-02
      1.4173187301811394e-02 9.2493230688635811e-02
      4.0264810827851924e-02 -2.2857809795831952e-02
      3.3839201267029606e-02 -1.3581268885893530e-01
      1.4984886005731690e-01 -1.9745468103592723e-02
      8.7443292292373534e-02 8.3197346290502391e-02
      -1.1119075941845566e-02 9.9854382123251054e-02
      -8.0701149239108663e-02 1.9204447945249040e-01
      -5.3945387388304948e-02 -1.2358530472368842e-01
      -7.4542522378015619e-02 -1.1058752346211805e-01
      1.3083482363830614e-02 -1.1277373716236133e-01
      8.0432392021145133e-02 -1.0254160531913188e-01
      1.2078089614739229e-01 2.1375446581777865e-02
      -1.8794029029143566e-01 -1.3033440322782525e-01
      2.1042492067121224e-01 2.3530551684594878e-02
      2.8539072342592151e-02 1.6166018582795350e-01
      -1.1428102975327025e-02 9.9103682411096156e-02
      3.8879055099665535e-03 6.7818522139578757e-02
      2.2876329570772597e-01 -1.6048980863868356e-01
      1.2101053386650433e-01 1.0911170244609436e-01
      -7.1884781968603068e-02 1.6646086547488798e-02
      -1.4971276023220964e-01 -1.6648771354117745e-01
      1.1464057042149800e-01 1.4876648861902839e-01
      -1.7940064687501342e-01 3.2993386299778042e-02
      -1.0001857534175612e-01 8.6621530059809854e-02
      2.0442680286880649e-02 -1.8824134373146402e-02
      -2.1899550235127993e-01 4.7367673226696383e-02
      9.6398034833435953e-02 1.1414476125061289e-01
      2.0475312129285081e-01 1.1345631957861438e-01
      1.3244028083286086e-01 -2.2255713337541602e-01
      -1.1974100919605321e-01 -1.4876947582326955e-01
      -7.4713642644642364e-02 -8.1390822075703570e-02
      5.6011055340358371e-02 -1.5136168485660967e-01
      -6.3400222341075174e-02 2.5871424911144348e-02
      1.3135882008070854e-01 1.4733041487761986e-01
      -1.1512587534188538e-01 -1.3403013431538907e-01
      -7.1718028526928240e-02 1.0162800571359908e-01
      1.3356083848352798e-01 -1.0774990828560659e-04
      -2.0192133342090590e-01 1.4473676326011972e-01
      8.5288668441944743e-02 -3.0093706649182480e-02
      -1.5720890999023757e-01 9.1278010499624793e-02
      -1.2073163660594417e-01 6.9546300737983194e-02
      -1.9390444435842530e-01 -7.9370103556475821e-02
      5.1998059350257683e-02 -1.4487781693255550e-01
      -1.5456978498613055e-01 4.0225127558576046e-02
      3.4140738720418715e-03 2.3328242134139105e-02
      4.3956323951064524e-02 3.8358026742030600e-02
      -8.3754663612002594e-02 3.6991415235849721e-02
      -9.3373536266765325e-02 -9.4035182928376135e-02
      1.2274596465117389e-01 2.0163869310281222e-02
      5.2337521461447885e-02 -9.7122561330231477e-02
      -1.1314262530842216e-02 8.5288734163989549e-02
      1.8610528037470778e-02 -7.3173319758067415e-02
      -1.1705076982166653e-01 -4.4704575870319195e-02
      9.4844664693150296e-02 2.2348225819015500e-03
      -1.6381494096209023e-01 6.7162662725699776e-02
      6.0152283954948704e-02 7.4037571205825783e-02
      4.6824428154468363e-02 -6.7829293259830573e-02
      -9.6507265733292213e-02 -1.2658455688691128e-01
      1.6268539433361320e-01 5.8761391819755752e-02
      -3.3494326678868980e-02 -4.8850533469297547e-02
      -3.1309046006346430e-02 -5.8240528448371617e-02
      9.2235787628288504e-02 -6.9811370166714005e-03
      -1.3547819650760354e-01 -1.6668993380204516e-01
      2.7440234978476544e-02 -1.6681751462600308e-01
      8.2526979010024329e-02 1.1938648682036566e-01
      -7.8780583265184653e-02 9.1580561853107340e-02
      -1.3458129501747232e-01 -9.4772933957697522e-02
      8.7310916624620066e-02 1.3910816519866859e-01
      -2.6863984486000771e-02 1.9175710286005003e-02
      -1.8680930638366194e-01 1.0722925695173249e-01
      4.6150745665191124e-02 -2.6834801838565799e-02
      -1.7125354217450944e-01 -1.0103429910780722e-01
      -4.8654876488099047e-02 -1.6563822552775699e-02
      -2.1165044978897007e-01 5.6698480530300695e-02
      1.4311345029761938e-01 5.4949023257911733e-02
      -9.4212937829334778e-02 7.1504524052343629e-02
      -1.3649075756108103e-02 -2.3948364142609979e-02
      2.8645336142551468e-02 -9.8396357800798195e-02
      3.5740552881722246e-02 -7.8256362571772112e-02
      -1.2964763925473871e-01 4.3739641602247872e-02
      -1.1785423894002707e-01 1.1423353353889371e-01
      1.2185783430094897e-01 5.9368198065392896e-02
      -8.3913004547749956e-02 8.2913258907711757e-02
      1.3788628610838986e-02 -9.2642510048747531e-02
      -1.2763479516006868e-01 -3.0093437278348994e-02
      -4.8360877155678106e-02 -5.3237616496015806e-02
      2.0359907704564723e-02 8.7370886984040316e-02
      6.9022289341208784e-02 1.0137517989915098e-02
      2.8368022202682454e-02 8.5560080870014474e-02
      -7.6258579532348894e-02 -8.4567306244125284e-02
      4.7947840949053491e-03 6.0352007406533507e-02
      1.6499040527597220e-01 -1.0536025299111423e-01
      7.2840519879902560e-02 -2.0289380270479010e-02
      -9.0576567984535977e-02 7.1781242636462975e-02
      -9.7418163735487992e-02 -6.2959885915634076e-02
      -6.5146446723869586e-02 4.3336273893231705e-02
      -4.9891841456694515e-02 -4.0083299546575538e-02
      9.6482215092370469e-02 9.6576083354314099e-02
      9.5394074893132494e-02 3.0161138301485077e-02
      8.4423397580740384e-02 8.9052377414898798e-02
      5.1465201986870768e-02 -3.4705643046110783e-02
      -3.4844083983858916e-02 -5.2310871152741738e-02
      1.2764548268795164e-01 9.4037790286863862e-02
      -9.1360116208785425e-02 5.8547235644815551e-02
      -9.0388444235028911e-02 2.2774992603250759e-02
      -4.3153866629429799e-02 4.9478714233616841e-02
      2.1141494705181028e-02 -1.2046413606527466e-01
      -6.3047388647294769e-02 -2.1164067854286669e-03
      -1.4398110709619899e-01 -6.9508768683758410e-02
      3.6987907729005863e-02 5.4648064513662872e-02
      -2.4171271882809475e-01 1.2771342281775899e-01
      -3.5709333051123240e-02 -1.1292221303875392e-01
      3.2343733567955758e-02 -1.2495690374402280e-01
      1.5347695130900366e-01 -1.8380654161915783e-01
      1.8784363460665554e-01 -5.8283006013716727e-02
      -1.9852683552257541e-01 5.0811757309770283e-03
      -4.8514522802236296e-02 -1.6493162035086958e-01
      1.7769558843368918e-01 -1.4100368947501617e-02
      -1.8829131117990061e-01 -4.2781224636197671e-02
      7.0883895583297033e-03 -9.7530432289547678e-02
      2.9442061846210201e-02 1.3630500980464827e-01
      -1.2447838685974068e-01 -4.4092604201649052e-02
      9.7783313971707461e-02 -4.6820856866302267e-02
      6.1231058125632010e-02 1.2566441860420476e-02
      -1.1873729171003596e-01 -8.5512826190993138e-02
      -5.6567917222296989e-02 -1.8620187583942349e-01
      -4.5106018420324571e-02 -2.6053443259420961e-01
      1.2914086057280494e-01 -1.3983614167716910e-01
      -7.9428869740856542e-02 7.3916654808330234e-02
      -3.2408549847525232e-02 1.7309483465206163e-01
      -4.0444608716096016e-02 -2.1803089970327219e-01
      -6.6543878320253005e-02 2.1632667678144323e-02
      1.9839633955139163e-01 -1.4107850754366999e-02
      -3.5979864388744670e-01 5.1466684832176111e-02
      -1.7764221747723405e-01 1.6555656805858587e-01
      -1.3139858087666823e-01 -6.4129912846790177e-02
      -5.0897560039071636e-02 5.2043677415180713e-02
      -8.6819960355323300e-02 -5.9824164743174472e-02
      2.6375778370369879e-01 -4.9362399744228166e-02
      5.3609322242619073e-03 -1.2230026680845735e-01
      4.2102890286039238e-02 1.4376083487478819e-01
      -1.1993399448330140e-01 -1.4117084291237619e-01
      3.9759339434646830e-02 9.0278492648744768e-02
      6.1231375671590670e-02 -8.7631021209915644e-02
      1.8617752604175038e-02 -7.0361235065624653e-02
      1.2980993757181392e-01 1.9852548943907589e-02
      -1.1561505676394608e-02 3.4463937435820748e-02
      8.7663408405336905e-03 -2.0410656270996974e-02
      -9.7567303467591099e-02 -1.2613796137598714e-02
      -1.8720224016515088e-01 -7.9608478659747975e-02
      1.2291037993782926e-01 2.3179080599680291e-01
      3.9682169208163857e-02 -5.8761813150731916e-02
      5.5833465627749851e-02 -1.5022079072156874e-01
      7.7063178755536130e-02 4.6116391436880816e-02
      4.2102840314147134e-02 1.2290863869533665e-01
      9.5194307690076918e-02 -1.1989322935322168e-01
      -1.6945154843679658e-02 1.6084083470215854e-01
      -5.8625732900734161e-03 1.3426661675879423e-01
      -6.1845148191163282e-02 8.8846723662022731e-02
      -5.9045147129368120e-02 -9.1649311584422036e-02
      -3.9732842480171358e-02 -1.4122574436493235e-01
      4.9729554483693504e-02 -1.2055985358687611e-01
      6.3299302239740850e-03 2.7912590564840224e-02
      -3.1238023033916762e-02 -1.3639804439195224e-01
      -1.9138181890345950e-02 -9.9630882392356346e-02
      1.4291981274513829e-01 -1.7151209580642482e-01
      1.6160043905716662e-01 -1.3508601555512251e-02
      1.2257558981075289e-01 -3.9466059651821074e-02
      2.3032409777932941e-02 6.5305880543057471e-02
      6.2658561004041936e-04 6.7892734608625119e-02
      -1.8564353160679117e-01 1.6094775603456551e-01
      -5.4790970491104610e-03 -7.0256953370891134e-02
      3.9863158734462729e-02 8.6370516450554935e-02
      -1.1790831922488051e-02 -6.9213538913702286e-02
      -1.0195732405293331e-01 -9.9048586842176725e-02
      7.6935286905411293e-02 -2.3022755783422999e-02
      6.1577134861978418e-02 -2.9925508466761751e-02
      1.1241657832505426e-01 -7.3250517901189208e-02
      1.6379468856810092e-01 2.8467247668116730e-02
      -1.7253324142493251e-01 -8.0171238154144953e-02
      -9.1378421573006421e-02 -1.4465481134176775e-01
      6.4663632622512027e-02 1.9836223748078453e-02
      -5.2162713445479875e-02 -1.7214579886363257e-01
      2.8679181281516777e-02 -5.6399313138203358e-02
      -8.4504680700308754e-02 5.6781645663204233e-02
      -1.5174892238407156e-01 -4.9141843452810002e-02
      4.9877901294920639e-02 2.7753423155261404e-02
      -3.7678481959455820e-02 -7.3591582788192056e-02
      8.8637962315129881e-02 -1.2493649490784033e-01
      1.4117129336766876e-01 -9.8634478418823307e-02
      8.7288673881318224e-02 1.6345860839973264e-04
      -7.6684792330967561e-02 -8.0226406565721581e-02
      -1.1191260243806307e-01 1.8526535023135421e-01
      -1.3840122339982745e-02 1.0259583806383782e-01
      -5.8244349993461730e-02 -1.3346285696043947e-01
      1.3360691801772095e-01 1.3128541304414351e-01
      1.5371306057766715e-01 -7.4887201193034852e-02
      -5.6034258800981895e-02 1.0680359977675014e-01
      -9.9848113732866728e-02 9.7905069282391441e-02
      -8.4678789451030467e-02 8.1458617134851960e-02
      -8.0163123884770954e-02 1.4194651941708517e-01
      -6.9291710925762348e-02 -2.8682023891827859e-02
      4.7418693337579462e-02 2.6169932477715555e-02
      -2.6626934148831064e-03 3.0977642729501455e-02
      -4.5859087431007039e-03 8.4678773889519221e-02
      -2.6127699600017151e-01 -1.8097558647491332e-01
      1.0186048469478823e-01 3.6186962628298479e-02
      3.6690077285801828e-02 9.9686418783251546e-02
      -1.7845259872281388e-01 9.2199185355488933e-02
      -2.0995830464550813e-01 -8.5358356536671329e-03
      -1.6734840658575975e-01 -7.7845032232251490e-02
      1.1587961571214969e-01 -7.4372471383134617e-02
      1.0391853162636661e-01 2.1998800892282996e-01
      2.2033644456185281e-04 1.7653234579334105e-02
      2.5270937722405806e-01 1.2849160345514385e-01
      1.0734384218120424e-02 -1.4176142837553776e-01
      1.0385850619443963e-01 -2.8067899856149030e-02
      1.9310697696292137e-01 -1.8885947130456930e-02
      -1.4527643242126018e-01 -1.1573220804126397e-01
      -9.9940123432975342e-02 -6.6266767561054638e-02
      2.2745690623859390e-03 2.2283329565031507e-01
      7.0685617051000710e-02 1.9200332019603642e-02
      -2.2829832762718293e-02 2.7406983502821497e-01
      1.7664963919341269e-02 1.0934025627613096e-01
      1.2938442962660562e-01 1.8900324306616936e-02
      -1.2795353419890518e-01 -6.7737660027243326e-03
      2.1311686876167205e-01 2.4345765601177492e-02
      -1.8842989401955564e-02 -5.7583057558890323e-02
      -1.3935202196327415e-01 1.1405644487915899e-01
      3.1855483285925373e-01 1.1287799077852443e-02
      -2.1151730587876370e-02 -4.0690633353874177e-02
      2.3429952157181827e-01 -2.6238898446109875e-02
      1.2572841883069064e-01 8.2177475613796944e-02
      1.1265726827316962e-01 -3.9180734415313369e-02
      -2.7176914622329951e-01 1.5028027015314285e-01
      1.9252445161967732e-01 -1.1278514330792047e-01
      9.0900329070239982e-02 -8.0892114851623301e-02
      -1.2996368213777129e-01 -3.4562357914390691e-04
      9.8126088294222383e-02 2.3432026005398707e-02
      1.2433840907841413e-01 8.3726515410990757e-02
      -2.3869529938985480e-05 -1.1730175132911537e-02
      -6.5306623075578107e-02 -7.7204274401419942e-02
      -6.6502039537146510e-03 3.9672486868245892e-02
      4.9937619764085249e-02 -1.6767502198052547e-02
      9.9809990179471841e-02 4.1474057588204057e-02
      -1.1775930092407733e-01 1.4736615750027762e-01
      7.1412796079705229e-02 3.3749691225026822e-02
      -7.8019933567913341e-02 -4.7922263098273937e-02
      -6.6288112166467503e-02 -1.1354118320708796e-01
      1.0819771800700745e-01 5.5730893274893924e-02
      7.4485784257104962e-02 -9.0988443523005128e-02
      4.4374341840842768e-02 -9.4248168334804622e-02
      2.0733107420457590e-02 1.7216042855403726e-01
      -8.8793617286097470e-02 9.4041485925709822e-02
      -2.1976697516753397e-02 9.7306706970381240e-02
      6.1147604946636479e-02 -5.3043424075378001e-02
      6.2466842097014107e-02 -1.2891436958396710e-01
      6.2772853080380345e-02 -1.2184907119605078e-01
      3.0980105044120604e-02 1.0677221151798896e-01
      9.3297356535781389e-02 -6.9327731107720142e-02
      -1.0098802370312436e-01 -1.3830541637763025e-01
      1.1705340913032097e-01 -1.0906089885492508e-02
      9.2501550823064160e-02 -7.0071238140282613e-02
      9.4879931299618928e-02 -2.6754746991617517e-02
      1.0771623809040737e-01 -6.1070836648719269e-02
      -2.1060299836035710e-02 5.8577434008498637e-02
      -1.3848716958243590e-01 2.3150197965617004e-02
      -2.1735932084831211e-02 -1.5141887673948863e-02
      -1.6597481443520867e-01 -5.5102545222470926e-02
      6.4761925338033682e-02 1.0180932570508876e-02
      2.2492232631049947e-01 9.4424706198206171e-02
      7.5519200069816550e-02 1.1037743192678767e-01
      1.4771840503321124e-01 1.7013091985666175e-02
      1.1786631654363297e-01 7.5136597076640430e-02
      -8.4297971366460764e-02 3.3301388017622738e-02
      3.1160799899252047e-02 7.7759393159386514e-02
      -1.0971746877254054e-01 1.5952580442171518e-01
      -8.0099083270490715e-02 -3.8908545083059902e-03
      8.1712426137902944e-02 1.8748119650502720e-01
      9.2025426485830605e-02 -7.4736895093024266e-02
      2.1130317419469205e-02 -5.8836403728110519e-02
      9.5107756917887379e-02 -1.3082718399212626e-01
      9.1187723950809652e-02 1.6091418304727365e-01
      2.2861453498001838e-01 -1.2757009350378629e-01
      1.2824751597898174e-01 5.2200363033388604e-02
      -1.5857093624873475e-01 9.5693991820838264e-02
      2.8212750449353634e-03 3.6058352297464881e-02
      4.6304561122257504e-02 -1.8979735383922802e-01
      -2.1708364423018689e-01 -1.9634950517805388e-01
      -3.6974527747820778e-02 1.5844221368454033e-02
      3.5754302658575744e-02 1.6664224507321301e-01
      -1.9869319993520679e-02 5.9022748832991162e-02
      -5.6562293932254371e-02 -2.2510983660275660e-01
      1.0693203708818250e-01 -1.7198229271651511e-01
      1.0271931382238690e-01 -1.0538650482487563e-01
      1.7851434998162621e-01 1.2384029140566077e-01
      -1.3832585586065121e-01 1.3413979034388832e-01
      -1.2148867190436100e-01 9.4758914305199171e-02
      -1.9713016280142043e-01 2.0190082511104643e-01
      -1.0152530580023858e-01 1.1685155514474059e-01
      1.1641263959949744e-02 1.0653292054328584e-01
      -2.9632585742931893e-02 -1.0246867116304777e-01
      -1.7905681590133846e-01 -4.6441134457574099e-02
      9.8601609846871330e-02 8.3680714672371703e-02
      -4.5676722009446773e-02 1.6131736789347546e-02
      -1.5811604658025433e-01 5.3100535408146021e-02
      -3.7216848081930896e-02 5.3709618997698244e-02
      -1.9355043215907314e-01 -1.4520359190109169e-01
      1.2934938827578121e-01 -1.1685949382111815e-01
      4.5702379329577728e-02 -1.8958653769064304e-01
      5.8573052946277416e-03 -2.1565427001133888e-01
      -9.0248208597360352e-02 -3.9645262008425469e-02
      8.4909708069697498e-02 1.1854319723027287e-01
      8.2071661182554614e-02 7.6551584085954555e-02
      -6.4948324859855827e-02 -2.4454132713869817e-01
      -1.3657382033251017e-01 7.3378842151858789e-02
      -5.4919828455994038e-02 -1.6769307604651928e-01
      9.1795822071763067e-02 -4.9557133526788567e-02
      1.8071189408220628e-01 -1.3788774767170825e-01
      6.5347904068877388e-02 9.5533363888681722e-02
      1.8297208419153657e-01 -9.3515566134468667e-03
      1.2385192330226569e-01 6.9540751801856940e-02
      8.9768918769496192e-02 -9.4097398552859285e-02
      2.8522093205123358e-02 9.9104727556426058e-03
      1.8603702138966288e-01 1.1072283788252628e-01
      -1.4656356524609992e-01 1.0599255639741832e-01
      -2.0930672277731396e-01 1.3715524422642686e-01
      -1.1167669400150992e-01 -2.0126689951119653e-01
      1.3862147230555175e-01 2.3039419867742416e-03
      7.4256580941222797e-02 2.9082293183309783e-02
      1.4025806308755115e-01 -1.3818871663473348e-01
      -8.2227251521859779e-02 -1.3923288374243470e-01
      -9.7184416080711419e-02 -1.4892653379562507e-01
      1.5567056243630115e-01 1.0646913117454707e-01
      -4.5170498734488276e-03 1.3358571634142877e-01
      -1.4602956469507178e-01 -6.5047654584761125e-02
      1.8448510980488073e-01 1.3119644539921624e-01
      1.6664579336622351e-01 -8.9300605116769863e-02
      -1.5117943264498401e-01 -1.2029535775388424e-01
      1.6149162769015690e-01 -2.1587104063173532e-02
      -1.7258212540529956e-02 -1.2476549664300876e-01
      -1.5672267542520449e-01 1.7800033076019542e-03
      -1.2919215634626657e-01 2.5067978460156581e-01
      -1.3116955378306785e-01 1.2950283004071023e-01
      -1.3082744898383455e-01 -4.5288348533478349e-03
      -4.1940863084651940e-02 -2.7462916877503494e-02
      -8.8127029549624716e-02 3.6987510619893599e-01
      2.5069731948682478e-01 -1.8436854735278788e-01
      -4.8533757441930746e-02 6.1227305596786913e-03
      -2.0259830756091490e-01 -1.1799706289053283e-02
      -1.1950201231205451e-01 -4.9162752924653295e-02
      -1.7018391825758542e-02 -1.6889495617681133e-01
      -6.4239875736899987e-02 -1.7312480039971134e-01
      -2.3116883498867247e-02 -2.5364741235682685e-02
      -1.7216700073687374e-01 4.5046879595814606e-03
      -8.6679392260460342e-02 -7.4868471560849539e-02
      -1.3526722919178813e-01 -1.5693520501767699e-01
      4.0958966197887088e-02 3.6779357257499763e-02
      2.7650602821733911e-01 -1.8508797115840767e-01
      1.5165241593965131e-01 1.1058149990830450e-01
      -1.8575503170418287e-01 4.8931396506928751e-02
      -2.4900428380612774e-01 1.6189614800563804e-01
      -9.7714557625168982e-04 1.8124040829420857e-01
      8.1284348047817512e-05 3.6434841198972431e-02
      1.3174040085137348e-02 -1.9673355056665884e-02
      1.4908240890992594e-02 2.8845530663659157e-02
      6.0107639976990132e-02 5.9462461096828657e-03
      9.8471075879741250e-03 -6.4104840315408265e-02
      4.2174612756888760e-02 -5.0208175478614288e-02
      -5.3015745850299729e-02 -3.8014325179153485e-02
      5.2972266326724041e-02 -9.0514118536529534e-02
      -6.5497557556836103e-02 -9.6844528089508344e-02
      3.5572454683570530e-02 -5.9095648208560614e-02
      3.1746010906319753e-02 -1.7613701628707384e-02
      4.5124383593299483e-03 -9.8037266889271557e-02
      9.2852010552947714e-02 -1.3833405043288553e-02
      8.0115169933044586e-02 1.1841619320424115e-01
      -4.2511005885736482e-02 6.0344600237523513e-02
      -7.7092763323718116e-02 -1.1430921266419378e-01
      5.7642307319553727e-02 1.0343105147909497e-01
      -5.0492234390546085e-02 8.7794970504903938e-02
      1.2106760442239572e-01 -1.0730154169771548e-01
      7.9689733556646797e-02 8.1227340866578679e-03
      9.4702558383470775e-02 1.9148795324105062e-02
      8.4044037459770723e-02 4.6948249971601672e-02
      -8.1285698039273352e-02 1.0012662001343965e-01
      2.4361819240606809e-02 4.9080837880946110e-02
      -5.5635628858308771e-02 4.7348476988209653e-02
      1.0020130254551295e-01 -4.4343114104450250e-02
      6.4730708390600437e-03 5.2802129463903807e-02
      -2.6617691612138138e-02 2.5915342592883330e-02
      6.2442799000805446e-02 -5.1590987847665616e-02
      8.5714717959830156e-02 7.9992714274849622e-02
      -1.1332871192289702e-01 4.5193262647830558e-02
      6.8303756707122104e-02 -5.2355789494471706e-02
      -1.0479963556904155e-02 -6.8583354323092593e-02
      1.6451242316023476e-01 9.0465939715823049e-02
      -1.5219362928658664e-01 -4.0449850338794800e-02
      7.6220841742218104e-02 -1.4163634163720157e-01
      9.5420166514214588e-02 -1.0343307560000348e-02
      -7.3022110238669280e-02 -1.2918136868956306e-01
      -1.0875985531110231e-01 8.8962061637826606e-02
      -3.5411190754900505e-02 -1.7269872236198858e-02
      -1.0144197590730146e-01 -9.8678243059058354e-02
      7.3178492978304407e-02 5.0022365255632341e-02
      1.6977291632240975e-03 -5.6730961245187424e-03
      1.4960027033681231e-01 2.9503347591286030e-02
      1.0844613933669971e-01 1.0069700025890105e-01
      -7.9087728072549504e-02 -6.0072859286748215e-02
      1.5806561918945811e-01 1.0893025883265252e-01
      -1.5303960807149006e-01 -1.4028839319031730e-01
      -1.9254341993331711e-01 1.3044849632731958e-02
      -3.4236360436612018e-02 5.4121770258524306e-02
      1.4471525292428025e-01 -6.1173235799665694e-02
      8.6858320757102356e-02 -1.3802727520615406e-02
      -8.2030662506140981e-02 1.1143878053201126e-01
      -2.3628973497019621e-02 5.1536399095333349e-02
      6.1310351955302392e-02 3.4838625897418943e-02
      8.9636550611858129e-02 -9.3249198415842172e-02
      -8.4416335074200766e-02 7.3800369940763944e-02
      4.8281966182105805e-02 1.6611774708233995e-01
      5.2881713872658782e-02 1.1378309987484601e-01
      -5.0780239107470149e-02 -5.7041520004003317e-02
      6.3187629718279431e-02 -1.3528479949186791e-02
      9.0920134450896677e-03 -2.5690587187393005e-02
      1.7009981972357011e-01 6.7454095395219973e-02
      -6.6560198103805410e-02 -3.9071708621365400e-02
      1.7032165891576428e-03 3.7839407189808993e-02
      7.2712893677505983e-02 -1.5805718813905467e-02
      -3.2143499231281437e-02 -7.3141405581024679e-02
      1.7279330089898893e-02 5.4538672938975241e-02
      -9.9743421467387960e-02 1.5314845130774560e-02
      -1.6278608286157650e-02 -2.1225393987015808e-02
      -6.8991790861112803e-02 4.4796263116493047e-02
      -7.1358331962066077e-03 -5.5929637381912298e-02
      -3.4341131631020788e-02 3.9803944706186924e-03
      -8.5279543685611058e-04 3.4194604006532853e-03
      9.9615160690718192e-05 -1.1349060229555789e-02
      -4.6803524660416389e-03 1.1312098234762343e-02
      9.7124040154428857e-03 -1.0131394335934754e-02
      -2.5950652284284819e-02 8.5673107392971060e-03
      -2.1827637774313405e-03 3.1612757850529097e-02
      -1.6197244541410364e-02 -4.0367102300008194e-02
      -2.6269625761704475e-02 2.7525534528780359e-03
      5.2204531631035844e-03 -9.4539823455854349e-03
      1.8049644398754758e-02 5.0828615324853372e-03
      -1.5430711162619995e-02 -2.2115639479766382e-02
      8.7701163065099577e-03 3.4095185689830020e-02
      3.5483335927241834e-03 -4.3738056259370967e-02
      1.9333694705330935e-02 3.7889425033917697e-04
      1.8827648084852065e-02 3.3528188758127332e-02
      -1.6024982542677920e-02 -2.9475756123354093e-02
      1.7123896383538915e-02 2.0072423146135443e-02
      3.9934306317202517e-02 -6.9951300648045597e-03
      3.3287535146235669e-02 6.8707029416290685e-02
      6.6455925781484251e-02 5.9200667563479754e-02
      -4.2236071033553493e-02 -6.5301889855246348e-02
      9.2201115408859766e-02 -4.0191069652235109e-04
      6.7164303566367364e-02 -2.5470401225351994e-02
      -4.5646987872223641e-02 -1.2405705291374844e-02</_>
    <_>
      3.7519891393802678e-02 -1.5056407799088166e-02
      -1.1813927581650454e-02 3.3647028056142170e-02
      2.1139266095982798e-02 -5.1153666122802144e-02
      5.1513322268473938e-02 3.9121922450930102e-03
      -4.3093181989906006e-02 2.6726867279593607e-02
      -5.4191060294047390e-02 -3.7400356731868353e-02
      7.9891793774966094e-03 1.1153305017821604e-02
      3.4019663426886851e-02 -1.1368673957991595e-02
      1.2812762411290120e-02 -2.8362176556310126e-02
      -5.3578437541597218e-02 1.5914119469149862e-02
      4.7970582185007556e-03 -5.4130773743509986e-03
      -1.0141685812258971e-02 2.3540333327560438e-03
      7.4272601774523869e-02 -9.9024980343398721e-03
      -6.0778409986167473e-02 -2.9683700598994316e-02
      1.2805186673625780e-03 -6.4575618597636317e-02
      -5.5926804210201624e-02 2.6513544328742866e-02
      2.4064314308237172e-02 -6.8528131775250434e-03
      1.2784347439416738e-03 3.6305104583770433e-02
      -2.4316937839310229e-02 1.5300395308135582e-03
      -8.9612145251738579e-03 -3.2283599376294374e-02
      -4.1666039475522665e-02 -2.8143869742514468e-02
      -2.5706454051019564e-02 -3.1289303440552321e-02
      7.4931680380076249e-02 3.3061420331672868e-03
      2.1999706762306077e-02 5.0927396920806389e-02
      -1.1602530684295669e-02 -4.5721060958185435e-02
      3.6788048005587243e-02 4.2191120741530468e-02
      -1.3891071588009667e-02 4.0958401995204445e-02
      3.1419547108941380e-03 -5.2665219462683176e-02
      -4.1352146662709532e-02 6.3875089808721683e-03
      1.0286602874822250e-02 5.8022180883978557e-02
      -1.0651159259232153e-02 1.6770811529208941e-02
      -5.0361168479724633e-03 -2.2267127914007281e-02
      -2.8256590807968197e-02 -4.5527065861456766e-02
      2.2228788658277553e-02 -1.6137938252872661e-02
      1.6543797684536746e-02 5.7887021139764613e-02
      -2.2183548066826320e-02 -4.3075789248142177e-02
      -2.6989421590103909e-04 1.7501179691348300e-02
      7.6457539322698220e-02 -2.2204049390067201e-03
      5.4794422359271851e-02 6.5883938103866765e-02
      -1.8944284974475967e-02 -9.9208885621595681e-03
      -4.1302514386556801e-03 -8.6387673131842271e-03
      -5.1551309847647733e-02 2.9480272868873159e-02
      -2.4801851755462494e-02 4.1141560406160717e-02
      -1.3221772877562987e-02 -4.8913274104021534e-02
      -3.5001336378357860e-02 -5.6802095662905278e-03
      -2.4576642701201790e-02 9.1564379125752427e-03
      -2.7426567139728110e-02 6.1418566059863441e-02
      -3.0168750716477597e-02 -3.3354001695769117e-02
      2.7230977180369136e-03 -5.0968212664762860e-03
      2.9816842028141000e-02 -1.5169847621673683e-02
      6.0362591082273584e-02 2.9063200900674026e-02
      4.9379219325888894e-03 1.7387219097872532e-02
      1.5238589832571287e-02 -3.8299710845144191e-02
      -3.7636980221829909e-02 -5.5105129876764018e-02
      -5.3053668691794960e-02 -3.9746812107810496e-02
      4.2281221051900172e-02 2.5474515119706248e-02
      -2.8768155424321103e-02 -4.5367011779363378e-02
      -1.8063031653195248e-02 -3.2404136914060541e-03
      -7.3595939760212128e-03 -6.6474793535586160e-03
      2.5465435620580595e-03 -5.3821499990832850e-03
      -2.5418296384087106e-02 -1.0819197667692114e-02
      -9.0222000108241343e-03 -6.6026805240134460e-03
      -6.3649854960801791e-02 2.8363307191858610e-02
      1.4688061074026924e-02 -2.9979070033731002e-03
      1.0959206273603334e-02 -2.8198598587708953e-02
      -2.6966163800353528e-02 -3.4040162235141738e-02
      -1.6082163665341778e-03 -4.1869259100224779e-02
      2.8561846385103343e-02 1.7860670497203527e-03
      1.3052804451220191e-03 -1.2949553742993607e-02
      -1.8835879138940543e-02 -6.9019153585969479e-03
      -1.8818196363550942e-02 1.5988557428929656e-02
      4.5533535749933450e-03 3.4090806022008785e-02
      -1.1455296692175902e-02 3.0956116195914072e-02
      1.4454699830924346e-02 3.1556494841037369e-02
      -3.5547564007166702e-02 1.7517671081521344e-02
      2.2565144904338676e-02 -4.1154657326300505e-02
      6.0046205087115556e-02 -1.5837632884141948e-02
      -2.5856953118402980e-02 -4.5075987188384299e-02
      1.5497333913475230e-02 -1.6189709135177501e-02
      -3.7509132455020705e-04 2.0085742248879667e-02
      1.5787384256412584e-02 1.3656480625129740e-02
      -2.2147728498856753e-02 -1.2706564876439735e-02
      -1.8235248090185369e-02 7.1061452694490277e-03
      9.8534380891061209e-03 -1.7790228637692088e-02
      -4.4438704277439636e-02 -2.8870228155740182e-02
      -3.6107763367085891e-02 -8.7447414825363862e-03
      5.5974337344367464e-02 -1.8057574262894536e-02
      2.7924379586070670e-02 -1.2854971493932242e-02
      -3.9261167874726610e-02 1.6326865736306709e-02
      -1.4378340556366180e-02 4.3927237403616334e-03
      -8.1121861522763777e-03 -1.9198723533479834e-02
      8.7290384139215513e-03 -3.9021994576410930e-02
      -2.4829828927536345e-02 -2.4921149559604832e-03
      -1.0308072947714101e-02 5.0607237463475563e-03
      -2.9649526264257375e-02 -3.3271330018203329e-02
      1.7272203862166900e-02 -3.5410920419447524e-02
      -2.7323983507801328e-03 -5.9020366238592720e-02
      -2.0930715522168439e-02 -3.5549105997359068e-02
      6.2166707208091117e-03 -8.3336829933678500e-03
      7.1726275083981239e-03 -3.7668182784866472e-02
      -6.1504974363738134e-03 4.3653180496776675e-02
      4.7399988048945935e-05 6.8024384262011326e-03
      1.0500585109466826e-02 2.2430463284957881e-02
      -1.4836990853032866e-02 3.2944308352507142e-04
      3.0918073650836011e-02 1.8121422955926066e-02
      -1.9695362589965067e-02 1.2376929661475479e-02
      1.4211204527482970e-02 4.3001902345246576e-02
      -4.2380583768801154e-02 -3.7140142764533458e-02
      -5.1255462278813689e-02 -4.3358840643960811e-02
      -3.6106728796771480e-02 1.8603382501230337e-02
      -1.2858064357141902e-02 2.9969638007396500e-02
      -5.7506558928879627e-03 8.0378883165357715e-03
      4.2134147017914077e-02 3.8638501879546289e-02
      -1.0030978848546831e-02 -1.5364162112818562e-02
      2.5545437601091514e-02 4.7149014531275214e-02
      -1.2551194057719092e-02 2.5014379214205601e-02
      2.4106586196816188e-02 9.4465231329737762e-03
      -3.5413534882478143e-02 1.7682465415940662e-02
      -3.5954377715291405e-02 5.2456693063331677e-03
      8.4722668714564235e-03 1.3965588761566481e-02
      2.7815398776306774e-02 -1.0378780059117907e-02
      1.4259018857635699e-02 5.7273287827301469e-02
      -1.8046125279674061e-02 1.9338509410279342e-03
      -8.6357166315990802e-03 -2.1141765818180731e-02
      4.0226270391307932e-03 -1.2798368827587723e-02
      3.3902134471291888e-02 -1.6240024781505723e-02
      -4.2053054379146040e-02 -2.6007175337848600e-02
      -1.4106690995561152e-02 3.9941115499915941e-02
      -8.6498979232661269e-02 3.9260335800675075e-02
      5.2606648189358729e-02 -1.2452845868342118e-03
      -2.2074724720091227e-02 7.0513177747568004e-02
      2.7233730909919851e-03 7.5625026955815536e-02
      2.9394201770941972e-02 -3.8230751036589940e-02
      2.7441988420082712e-02 3.5567201774962878e-02
      2.0848382568756534e-02 -4.2950871211499221e-03
      5.6590871436337356e-02 -6.5070222823478338e-02
      -3.0646199688077989e-02 -3.6042482315166678e-02
      3.5889909914858607e-03 5.0066423674554944e-03
      1.5476237936086297e-04 3.0712710143109948e-02
      1.0826506570489567e-02 5.9328997027079784e-02
      -6.8575363033174436e-02 -3.4648587705646626e-02
      3.4172426357557469e-02 3.0398512870987351e-02
      -1.7764006350610713e-02 2.3759209508608669e-02
      -2.2568343488366949e-02 -2.3876039887893438e-02
      -5.0753611698126082e-02 -5.6387151579697967e-02
      -1.6370574028887898e-02 9.6056190416940468e-03
      -2.5062393714371994e-02 -3.0910544533996602e-02
      3.9934908703367862e-02 -1.3241970917617082e-02
      4.6077461546436375e-02 2.9170456190308759e-02
      4.7912423957247416e-02 1.0279619352036697e-02
      -5.6734412545490678e-02 2.0392510474854582e-02
      -7.1725412595481888e-02 2.5428966467432042e-02
      2.2356625402924747e-02 -4.6252770344374127e-03
      -2.8653047518112100e-03 1.8613256532554766e-02
      -2.0734691873689422e-02 2.2993266158787360e-02
      -6.2977794947169013e-02 4.3439350685672805e-02
      7.6886676009903052e-02 -2.9104138516164193e-02
      2.8589982176604221e-02 -2.2294111838697735e-02
      3.1599179495306579e-02 8.2222054408675020e-03
      4.6085241212862692e-02 3.5614663226523575e-02
      5.2926877394209433e-02 6.1267141314896162e-02
      3.4990099324888795e-03 3.3167760328433570e-02
      -8.7784189906493018e-03 -2.3664194997111417e-02
      -2.2694918669277409e-02 3.2586427078105488e-02
      4.8510521697977390e-03 -8.0222232942447971e-03
      -1.3753787178935203e-02 2.4581657660316246e-02
      -4.7392404511538977e-02 -9.5571473089057515e-02
      2.2312096480231074e-02 -3.7518835804866979e-02
      -2.9529598963085747e-02 -4.8659622760631759e-02
      -1.1180098064584315e-02 -1.8423223588245410e-02
      -2.0867289148729724e-02 -5.9646035424653653e-02
      2.1450512468103186e-02 2.5200632043803194e-02
      4.3849832141602096e-02 1.0486715682737850e-01
      6.3433644208562040e-02 2.2596406116086667e-02
      7.9647491961650094e-02 -4.1631838650538801e-02
      8.1764996251527347e-02 -2.2347136824438257e-02
      -3.7307512305743848e-02 -4.3440666637480849e-02
      8.0835024302946153e-03 -1.2916049783519363e-02
      -4.4557519270602405e-02 -4.2002349717442392e-02
      3.0188091161838450e-03 -4.4277443165386100e-02
      -7.6880550853236751e-02 -5.4574171759559781e-02
      1.5803999089732176e-02 -5.5541359235548671e-03
      2.2500520033504657e-02 2.2615497907820283e-02
      1.2094928782539639e-02 -3.8352816205275711e-02
      6.8609847976091902e-03 7.5026852167077492e-03
      -2.6622158300701502e-02 -7.9678608094851028e-02
      -1.3719869158545745e-02 -3.4664148455937731e-02
      1.5888714562350654e-02 8.7988339663291650e-03
      9.7972780731717078e-03 5.6949624043983127e-02
      4.7991447696777685e-03 -4.8687359316549349e-02
      3.3601525140835538e-02 -3.9461749106512622e-02
      2.7498118746344467e-02 -1.6952171401563958e-02
      -6.6559320811381301e-02 3.2018777019576082e-02
      4.2426209490151828e-02 2.5103020246699352e-02
      -2.1900887077298509e-02 2.3716194664411883e-02
      1.8745612442607612e-02 4.9911897261216864e-02
      -2.8648081425672382e-02 -1.1642337259481895e-02
      4.2691534928985246e-02 1.1795365425838035e-02
      2.6206441222131959e-02 1.8127140020605160e-02
      3.8407337972605005e-03 5.3985553020028916e-04
      -1.8470384840458438e-03 6.9906003490994382e-03
      2.9433277398698734e-02 -2.3513534012618555e-02
      -1.2423413301533171e-02 2.2092172027597792e-02
      -2.5085707305591308e-02 -5.9777898569253491e-03
      -1.0407489891012355e-02 -2.7097740344555067e-02
      3.1827958194210422e-02 -1.9687166277660768e-02
      1.1411319517577971e-02 -7.7978241006152272e-03
      -1.3376854940364035e-03 -3.0501246666283698e-02
      -4.3751007839151253e-03 3.2105984590482420e-03
      1.7294147125895398e-03 8.9734996015906742e-03
      -3.3605071745331096e-02 2.2498649459253898e-02
      1.5610396585453462e-02 1.3787896353780546e-02
      2.9179727002308788e-02 -7.8954402498646603e-03
      1.0119153556216931e-02 -1.7261111276140897e-02
      -3.5564005925956883e-02 1.9556305611691895e-02
      -1.5502651568574345e-02 -3.9743081515561437e-03
      -3.1025508369092694e-02 2.7723959033486349e-02
      -2.9650145051681670e-03 -6.4132925902812511e-03
      -2.3976756666165715e-02 1.8480454792799736e-02
      -4.5202605526910009e-02 3.0675605789405355e-02
      6.5878479763053388e-02 -6.5656064696207772e-02
      -7.8548274922861545e-03 -7.1266017904442931e-03
      1.0043166462742958e-02 1.0853575529584035e-02
      1.0666588652799739e-02 3.1868866789169656e-02
      3.1828737563586923e-02 2.9998824129871635e-02
      2.4045331444315268e-02 -2.4226378790964814e-02
      9.5078315053989029e-03 -4.1182420774513034e-02
      9.4341348386865077e-03 3.5291829519998487e-04
      3.3355760371820746e-02 -2.5400032737574029e-02
      -3.3324128124470193e-02 -2.9766888926806021e-03
      -4.2730197402863913e-02 -1.3417460146189065e-02
      1.7497678047170687e-02 -1.5906130792001489e-03
      -4.4034333706807212e-02 -4.4763830236948139e-02
      -2.6409561409067112e-02 -1.8363129193328269e-02
      -2.6846487110116410e-03 -4.7701345983295382e-02
      1.9777894539261515e-02 7.8099240806365558e-03
      1.3308852007464214e-02 4.2672749843621217e-02
      1.6432567661312115e-02 -2.2763443126095906e-03
      4.3570272101529563e-02 -1.3921553991642724e-02
      4.6198915640376280e-02 -2.0557125767181432e-02
      -2.2947254135470847e-02 -5.8367883775362764e-03
      1.8912468810291013e-02 -3.2434406307183701e-02
      -2.0197243299255572e-02 -1.1199731257952449e-02
      1.2535918643236964e-02 9.3880331429737496e-03
      -5.3457257236789492e-02 -3.2497400831317663e-02
      3.0480548493091401e-03 -1.0686777077502603e-02
      2.2442535611124977e-02 2.0418779748931509e-02
      -2.6321788210474883e-02 -1.9518330074879360e-02
      -2.0292002594801576e-02 -3.0814441636040059e-02
      -2.0220842576123513e-02 -5.9259829442733322e-02
      -1.5711154483239464e-02 1.6131221883782323e-02
      1.1990411924614225e-02 1.1074780888927038e-03
      1.0296787651452328e-02 8.9077564757398218e-03
      2.3725536546917322e-02 6.8938713160963299e-03
      9.5663608686114582e-03 4.8789688375565250e-03
      2.4013150362657172e-03 -1.6267603355640046e-03
      7.3399989075560598e-02 -4.5376050433564179e-02
      -2.1976701532851425e-03 -3.4904241414167821e-02
      -2.6016011542611375e-02 -2.7104245703109930e-02
      -2.8652265216311729e-02 -7.8794157428432515e-02
      1.1034687962353804e-03 1.3204171343748677e-03
      3.6019321011088387e-03 -4.5203555414125287e-03
      -3.2136583706600129e-02 -4.5543305253673998e-02
      -1.2384697005017086e-03 2.8301546303628813e-02
      5.6574860770464502e-02 4.5228296664101497e-02
      2.7437240100601404e-02 5.6133565983193016e-02
      5.1966984327403050e-03 7.4997342092537278e-02
      3.0285719618160557e-02 -5.1932167685598794e-02
      -5.4604551718387538e-02 4.2197934806362983e-02
      4.2142267835320532e-03 4.1665504124748870e-02
      3.4322117633662975e-02 7.8597122639175749e-03
      7.7245325693058489e-02 5.4592547203586507e-02
      -2.8029512672768854e-02 3.1657776944555571e-02
      9.2117345808103018e-03 -1.3926166472136427e-02
      7.3750324893206029e-02 -3.7257839721348135e-02
      -1.2959794452431048e-02 -1.5031488673781039e-02
      -9.0666176181790747e-03 -2.7134023478890591e-02
      -1.4613427762260557e-02 5.2860398141536681e-02
      1.0178771995608736e-02 -6.6162015062876001e-02
      3.3308996188706738e-02 -9.0700546025124451e-02
      5.4183450438475354e-02 2.7914187540841250e-02
      -3.7522681156001075e-02 -7.0011659331198559e-02
      3.5831549667195102e-02 -3.8767453278376732e-02
      3.9755425096374794e-02 -2.6619140124067110e-02
      -2.7536319242374694e-03 6.7346993526171448e-02
      -5.4201706092936175e-02 -4.6306732798739848e-02
      -2.8757181325253248e-02 -7.6019030586041508e-02
      1.8128167534368974e-03 -3.7900260248529653e-02
      3.7454239411491820e-02 -3.3068319875889193e-02
      -9.5847775606833260e-02 1.9640072838742702e-02
      -4.6033825333730710e-02 1.6506269410569006e-02
      5.3841860804264167e-02 -9.2556254696205629e-03
      2.1313508601127152e-04 -4.3973434160807311e-02
      -2.0647318088022705e-02 -4.2982855856612337e-02
      -8.0406094372447497e-03 3.7629060820605680e-02
      9.6422690726509618e-03 -1.9245846756449622e-02
      -7.7585118669976126e-03 6.8866356697390912e-02
      8.1709599193764068e-02 1.8453103196839873e-02
      4.8510084313269204e-02 -1.9312500551019584e-03
      -6.0054583524713420e-02 -1.9771206182625341e-02
      -1.1369801723283201e-02 -6.1712681575862072e-02
      -2.6732167501393258e-02 6.4520746660496463e-03
      -3.5890467430220877e-03 1.7325808521049008e-02
      -4.3890062859422750e-03 2.9713370345304742e-02
      9.5318245945586258e-03 4.2509570301724822e-02
      1.6887908723553161e-03 3.8429677227674403e-04
      2.9258501761417347e-03 -9.7637487023857529e-03
      -2.9599667824146490e-02 -2.2261652508451839e-02
      2.4914259021882008e-02 6.3148850778719248e-02
      1.1187455587987227e-02 2.9457611748045485e-02
      1.1225331191863312e-02 -5.0930543428917684e-03
      1.7385482204607301e-02 -9.6769829095364971e-03
      1.7606397187337895e-02 4.5712457336175898e-02
      8.3248398287978101e-02 6.0323710681323403e-02
      -1.3239399436872927e-02 -2.2588259218373818e-02
      -6.3677971983142886e-02 -3.1430262110554601e-02
      5.4631089627434140e-02 -3.2066965092472852e-02
      -5.2894313306584895e-02 6.3858727536813223e-02
      -2.9978154589000894e-03 -1.0467428032102885e-02
      1.2659628291840530e-02 5.2001811989464894e-02
      3.5762391318804126e-03 4.1506304975700951e-03
      -5.5428668859234757e-03 -2.9189815892063788e-02
      -2.1696813660763415e-02 4.3709940801687018e-02
      -3.8021399282706411e-02 8.9203950836049418e-03
      1.9504775761726267e-02 -2.5186566536498547e-02
      -4.7237167893923642e-03 2.0137737474039429e-02
      -7.7919041750290185e-04 -1.2996966670320763e-02
      -1.6679319528691852e-02 1.1518770219505554e-02
      3.3994814314212980e-02 5.3725289222469989e-03
      1.5758352207964201e-02 -2.5478906146803468e-02
      -7.7680309183582380e-03 2.7895258867552696e-02
      9.6523072325924147e-03 1.3612185372447827e-02
      -5.6553074299198987e-02 1.9197646308802468e-02
      2.8451619663648942e-02 3.5689992755886843e-02
      -2.7725198410548726e-02 2.9061989299882893e-02
      -2.4427037575111593e-03 1.4986805453031127e-02
      -5.3321037418755449e-03 -4.2985143537859670e-02
      2.4180618398750870e-02 -1.6982509891601511e-02
      -9.0966124801618309e-03 -3.1192796500734126e-02
      1.9896797143164141e-02 7.0160776485775744e-03
      -1.0345743328257103e-02 3.6181536530335137e-02
      5.5177848692976018e-02 1.0295666166284570e-02
      -6.0822815465595793e-02 -1.7728810438311308e-02
      -1.0530249315903354e-02 -3.3948345179117372e-02
      3.0000190950321408e-02 -9.1056629010734819e-03
      3.3622501712867151e-03 -2.4285246954502231e-03
      -3.7820614849090914e-03 -1.9320909934219816e-03
      -8.9589495241449331e-03 1.7577093690393356e-02
      2.2211263235069906e-02 9.9097041985629804e-03
      4.8178631550580865e-03 -3.7684711272682907e-02
      -1.1632654861120027e-02 -1.7369981803127144e-02
      -1.0449568088718273e-03 4.0915485545867471e-02
      4.3703600134914658e-02 3.8538886228626452e-02
      -2.0200568581400499e-02 3.3784104078183421e-03
      1.0818662956831825e-02 -1.8192177992066228e-02
      1.2091769497229765e-02 3.8201597824171360e-02
      3.4867483620214135e-02 -1.5477082022188405e-02
      -3.6912099028110539e-02 -4.0415983837714022e-03
      -6.1699906041397461e-02 -4.5468002376998801e-02
      1.4087543387431314e-02 8.3426109296469379e-03
      -1.5331804456042722e-02 -2.9885499815968337e-02
      1.6205198073918198e-02 -3.7922894958918499e-02
      -2.0886724826694084e-02 -3.0717023403678587e-02
      4.0656161879514825e-02 4.0989447881220435e-02
      3.4592154153548278e-02 1.0746423667437950e-02
      5.1069014736029213e-03 2.4519314275095027e-02
      2.5674261791027539e-02 -4.7161975928986750e-02
      2.6392347643137520e-04 2.4660574334931004e-02
      5.0804564944472467e-03 5.7280190312145301e-03
      -2.4431204517110304e-02 3.0888788001858181e-02
      -1.6815319357725962e-02 -5.9502038707966255e-02
      6.7005500941761924e-03 -3.6243383328128251e-02
      -3.3340539635859983e-03 1.6056998367376240e-02
      9.9782046212241494e-03 -8.4396748755765950e-03
      2.5735907874288765e-02 3.1653546395579296e-02
      3.5111342597415819e-03 5.8394940034167172e-03
      -2.0943187468456099e-02 4.0910850460458455e-02
      6.8192288986262672e-03 2.6941434562616300e-03
      -2.4879561513169411e-02 -4.1648691303881227e-02
      -7.5635367629304151e-03 3.8428132112399080e-02
      1.8123249947682048e-02 -1.2250804887496929e-02
      -2.1849999025723203e-02 -2.5924510859400028e-02
      2.9896283632350647e-02 -2.5090444499285856e-02
      -9.7867318248444132e-03 -3.7626305461788009e-02
      3.3834349196483531e-02 -6.3972451186972345e-03
      6.1632644127922317e-03 1.3669888644796567e-02
      1.0139675823216147e-02 -2.2127869398722494e-02
      8.7446674485733289e-03 1.9066602340804737e-02
      -1.3181653844942291e-02 3.2880272322254614e-02
      1.6273796579477395e-03 -2.2814596956106523e-02
      -1.1731440295864336e-02 -8.3806458332321148e-04
      6.9496217387336060e-03 3.3561525325598938e-02
      5.2421561435406598e-03 -1.4770340446972230e-02
      2.7996107045859340e-03 2.5618461392059883e-02
      -2.4620794774437599e-02 1.2091328757249822e-02
      1.1319699458246671e-02 -3.0366484682694470e-02
      1.1266062943713693e-02 3.3081908803431037e-02
      -3.4080456896602314e-03 1.2006773695057900e-02
      5.1695912845326356e-03 5.7824880225962794e-04
      -1.2440235722551840e-02 1.7817845704649938e-02
      3.4523596349875917e-02 2.1360444418802377e-02
      -1.2808021225444962e-02 -2.0155201229042605e-02
      -2.3753598266057861e-02 -9.2601590445890412e-03
      4.9158320883033726e-03 2.9380609623166441e-02
      -2.7698379376113098e-02 -4.7598820862984850e-02
      -6.2588940302380370e-03 -3.8823896945134655e-02
      1.0415519722848926e-02 1.4040982858513913e-02
      3.7137962326110448e-02 -3.9515213301104017e-02
      -3.9422106480547732e-02 9.8725797206161009e-03
      -1.6087785310036937e-02 -1.9483237984672809e-03
      2.3962918897631795e-02 -2.3627817267362634e-02
      1.2784740422148388e-02 -1.3383078215295564e-02
      -4.7999931654901178e-02 -1.0669894260485846e-02
      2.4280106684224360e-02 -9.6896466177773359e-03
      -2.3325197471906669e-02 -2.5614547711861550e-02
      -2.3250040706525622e-02 -1.2369158335013593e-02
      -2.6672011029423005e-02 1.4938550053757950e-03
      -3.2082818239746708e-02 1.0249792854025754e-03
      2.1938976840540719e-02 -8.3503429328160052e-03
      1.5422104953549069e-02 1.5541474099095608e-02
      9.8431530344833453e-03 -3.1489187361418403e-03
      7.7486991503346835e-03 -3.3137337516542791e-02
      4.7480550349533364e-02 2.0809685357262027e-02
      1.8625350759338558e-03 2.4175462957662330e-02
      1.5546008172559130e-02 7.4036867072268947e-03
      2.8601027590473910e-02 2.3390649022612996e-03
      1.7244522348719957e-02 8.7130279736688642e-03
      -2.0753368070224185e-02 1.2213167668032220e-02
      3.3638760881268843e-03 -6.7516587798389215e-03
      -3.8566124249270542e-02 2.1513586623207778e-02
      -4.1680251790660192e-02 2.9967968927780392e-02
      -1.1255382261588103e-02 -8.9615048899030075e-03
      -1.3227873500625119e-02 -3.6138031615141624e-03
      1.1199971897058203e-02 2.8812181448924844e-03
      5.0736855955532852e-02 3.1534438534486800e-02
      -2.6361848659088982e-02 -2.1139461222423127e-02
      2.4840945570040591e-02 -7.8377325197970023e-03
      -3.2769499059348900e-03 -2.8699744923925460e-02
      -8.6691740953929782e-03 4.8031173913542849e-03
      2.8600248896690276e-02 5.0673719550506910e-02
      -9.5612546437655712e-04 -2.9291304153654801e-02
      -3.6981211411782175e-03 1.8112389484906736e-02
      -2.7710239510804779e-03 -6.9134561400880732e-03
      -5.0161537438540354e-03 7.7227851970630692e-03
      1.3896776129660149e-02 1.4724266718696912e-04
      2.8775535966940047e-03 4.2876460504143538e-02
      9.2637276266136510e-03 -4.6563095998387915e-03
      -2.9065695854624096e-02 -2.2462453626423535e-02
      6.3502266006226797e-03 5.7047796231777213e-03
      1.0918593100583284e-02 -2.2532148082926754e-02
      -1.2067460473823335e-02 -1.1058087938619308e-02
      -5.2323025608536035e-03 9.1587888346754878e-03
      2.6436360130462942e-02 -1.5137417529674100e-02
      1.2591435293001278e-02 -2.9727981671908224e-02
      -2.4544829924878667e-02 1.3568924350632715e-02
      -6.2774711138061214e-03 4.2453202805516335e-03
      2.9638847961053722e-02 -2.3562629072540434e-02
      2.4344975264979675e-02 2.1850415574489038e-02
      2.0812778295444416e-02 2.9736022477709453e-02
      -1.9909945127272351e-02 -2.3476394926269718e-02
      7.6545237765500975e-03 -1.0563746368982161e-02
      7.1375198289025492e-03 2.5352293295288979e-02
      -1.8492966358899840e-02 6.6175423758896767e-03
      3.7209166814354058e-02 -3.1930603029451284e-02
      2.6472816998366093e-03 -1.5909257866265895e-02
      -3.4306539118506962e-03 2.1169132624550432e-02
      9.7986482181689552e-03 -1.7734857356094782e-02
      -8.3861078945648600e-03 1.6127849777222546e-02
      -9.7745351974626322e-03 -4.0593917446405475e-02
      1.5179463627755059e-03 -9.6718554100227415e-03
      -6.9046069927694723e-03 2.1431104656930065e-02
      4.1993073545730106e-02 -1.6998323340454931e-02
      2.5855492488777863e-02 -4.1500699153099322e-03
      -3.0329930985977534e-02 -7.3700006864696613e-03
      -6.0292505781676326e-03 -9.2524894899978366e-03
      1.1950566595412108e-02 -3.4397294178655037e-02
      -1.6849420533745557e-03 3.5975510904678057e-02
      -3.2914314845687298e-02 -5.0216023832699149e-03
      1.5054788779665631e-03 -2.9245256965437366e-02
      -2.3172079437519179e-02 9.1046921360286132e-04
      -1.2575614839523144e-02 -3.5079390278440793e-02
      -3.5562464889838788e-02 2.1972571714486007e-03
      -2.2200705213261725e-02 2.6463825152395763e-02
      1.0600783070470252e-02 -2.1098958574083049e-02
      -2.9665546755564431e-02 -1.3783517962562313e-02
      2.3681020430227642e-02 2.2269396997248128e-02
      1.9247084749946301e-02 3.8479417404627632e-02
      -9.5316300192258129e-03 1.3046927619640656e-02
      2.7464579284457048e-02 8.9736823324831922e-03
      -8.3684161497785351e-03 -1.9786545805786698e-04
      -1.7613774477559341e-02 1.1165825733886657e-02
      1.3007663799188744e-02 4.8601410249566315e-03
      -2.2642815581374522e-02 -5.2588117512065418e-03
      7.1336231875791896e-03 6.3748712501756309e-03
      8.4030267286934624e-03 1.7798651690239960e-03
      -3.9256079386938404e-02 1.7327155674818986e-02
      9.1657149647394881e-03 -1.1617836241405383e-02
      -5.1426050666513864e-03 -2.1589432392582417e-02
      6.6787917863174407e-03 9.6064711728426136e-03
      7.4802185595591536e-03 -2.5083673239611966e-02
      4.3892537014857139e-02 -9.8395706799350377e-03
      -2.0066232996132419e-02 3.3773224164990422e-02
      -2.3662887934808842e-02 4.7106174669326092e-03
      8.7943419099506051e-03 3.6706941878070831e-02
      -2.4426429721924204e-02 8.7258291597489719e-03
      1.0132867070809629e-02 4.2247701170030447e-02
      -1.7370593243840830e-02 1.6779092071244388e-02
      9.6967840670417627e-03 -1.9931366209480491e-02
      -1.7984329178190251e-02 7.8269447625364391e-03
      1.1589811481219290e-02 7.4900982850230943e-03
      -4.7498830448894266e-04 2.7476461616570257e-02
      1.5406627429679041e-02 -4.4060672138485704e-03
      -3.6341931546237183e-03 4.8080131976561254e-02
      1.3379644508788830e-02 1.0408111341350917e-02
      1.0717639852430816e-02 1.1148173989668215e-02
      -2.7688826890114076e-02 4.4605970531255278e-02
      1.8187035026210399e-02 1.6920808726893635e-02
      1.9746108164425447e-02 1.7236224950925430e-02
      2.1107276766301482e-02 1.4334591847442337e-02
      3.1497840798388667e-02 8.5210671685463629e-03
      3.1544006506289329e-02 -1.9626945611850712e-02
      3.8225949640339860e-02 2.1357404042088433e-02
      3.6123710341053279e-02 2.7158637475820358e-02
      5.5600078037315896e-03 -5.7569718581513881e-03
      -2.9622179241473801e-02 1.7653243302734704e-02
      6.0668981183626410e-02 4.0060550701003422e-02
      1.1630116102420922e-02 4.7113185949069269e-02
      2.7682710846554805e-02 -1.1901329722284006e-02
      6.9512192615059636e-04 -6.2720055535857976e-03
      2.4594646226561389e-02 -2.8324508534014133e-02
      -8.3199994813691874e-04 -3.3710871002415682e-02
      3.9635707923620866e-02 -1.0315940171560546e-02
      7.0158111023150577e-03 1.9198396856838610e-02
      1.1926638258935269e-02 2.4890980006183942e-02
      -6.7142452825843746e-02 4.7133218132257290e-05
      -2.5882470870925420e-02 -5.9289782057153550e-03
      3.3504666373466246e-02 1.3479376452097225e-02
      -2.4437000974880312e-02 -1.8172835187122895e-02
      -4.5606545261027774e-02 -2.0285887001618808e-02
      -5.0330154638830435e-02 2.8500396184736862e-02
      6.3304774874216097e-02 -5.4920469932874465e-02
      1.2881117419428408e-02 -2.2491679408748431e-02
      -7.3888268216980709e-03 8.2798020687751602e-03
      3.2068419723959816e-02 5.0086891578243448e-02
      9.5891002548776968e-03 3.4600020445586209e-02
      9.9774970173687489e-03 3.2067939121381464e-02
      -2.3447750098368397e-02 -6.6710340075195416e-03
      -3.1943286504204263e-02 3.1325350401693916e-02
      -4.0958939700917575e-03 -2.1636887798712871e-02
      -8.8460359459695548e-03 -3.2258767146281023e-02
      -7.4064007740574297e-02 -2.2345699568392798e-02
      -1.1908164133906529e-02 -1.5408981111462338e-02
      3.1420631337183741e-03 7.5975925649827266e-03
      6.0140601450440322e-03 -3.5899532253171225e-02
      -1.8163410156269318e-02 -5.8871413245133633e-02
      -1.0916001118545982e-02 5.2884470155095120e-02
      -1.9415880345767619e-02 1.1568229393667185e-02
      3.1349958235246528e-02 3.3034279076327409e-02
      4.1093726018455443e-02 -1.2212690160990081e-02
      2.0029549809941434e-02 2.1878238006055196e-02
      -4.8432131702244870e-02 1.2416240606151888e-02
      -2.1802848939113953e-02 -2.2130294661355924e-03
      -1.1810968954048406e-02 -2.9802723691080071e-02
      2.8910830565130247e-02 -2.4738976837685916e-02
      -4.4960004541057877e-02 -2.0552093808030580e-02
      1.2030236372565121e-02 5.5865346036350801e-03
      5.9958791973207855e-03 2.6315811523361307e-03
      5.7739633983431319e-03 -4.0992683576562612e-02
      -1.9971523583804981e-02 1.0163941205408031e-03
      1.0038745800860206e-02 -2.8826307579698712e-02
      -1.2291974450638482e-02 -3.4942512523728431e-02
      -5.4470003714236397e-03 2.4888190900477239e-02
      -1.7490128255323350e-02 5.2842266817544484e-03
      2.0211269938257562e-02 -3.7468816819674497e-02
      2.2599808261961452e-02 -2.1883934378090015e-02
      -1.2274855285982718e-02 -3.9713312468611520e-03
      5.0943630439673877e-02 -3.2400423913751279e-03
      1.8513135633374707e-02 6.7665130433143903e-03
      -1.9796939208995168e-02 9.5669881522397558e-03
      -4.5295310538401946e-02 -4.1171589707187400e-02
      -8.7484326927618553e-03 -6.2183573980818790e-03
      1.1663842230866629e-02 2.6886393156967891e-03
      -3.3384457612068284e-02 -1.9711991479443747e-02
      -3.3431582898117013e-03 1.2377163862652056e-02
      -4.4144133791447433e-04 4.1329867183731807e-02
      3.2101735481279828e-02 1.4777158270870859e-02
      -1.3209901931178122e-02 3.3050804739554532e-02
      -1.0217449774571110e-02 1.6515909603848428e-02
      -3.5425802987841169e-02 1.9883833884968283e-03
      -6.6387471353016887e-03 2.5816868525787736e-02
      2.0781951752433896e-02 3.5093916599792246e-02
      3.1441300612821979e-02 -1.0872213410747546e-02
      1.3167629212927377e-02 -9.0467630202624143e-03
      2.6481560907444610e-02 5.5324768497465697e-03
      1.1115915800916641e-02 -2.0843181387364657e-02
      3.0293194493217497e-02 -5.0975409946980880e-03
      2.7592317484776512e-02 -1.0120354123751309e-03
      -1.4040717248926251e-02 4.7843529740039449e-02
      -3.9705433740600739e-02 -5.6851918948329042e-02
      7.4866007489560139e-03 -2.9964346409863382e-02
      2.6346325606249190e-02 2.7812321922874285e-02
      -4.8857797225765241e-02 -5.7988059024876512e-03
      2.4514221509840138e-02 -2.1938402328300962e-03
      -2.0173803637195207e-03 -1.5773128430148303e-02
      -2.1596197704029568e-02 -6.3462399090857416e-03
      1.3174856502405565e-02 -2.6677917130036193e-02
      -4.2301778189236819e-02 -5.9545946407889606e-03
      -2.1939188689926181e-02 -1.6250558773342166e-02
      -1.3105129546499651e-02 -2.2972358711201020e-02
      -1.1802643619687138e-02 2.8849181142345932e-02
      4.3527297840289638e-03 -2.8269055887814098e-02
      -5.8045830370505877e-03 -2.1960990456395828e-03
      1.9657731185123331e-02 -8.0408339397927545e-04
      -5.2695116728175055e-02 -3.8399823923664554e-02
      -5.2301564140382686e-03 -1.1358439385496855e-02
      -2.0376996186783021e-02 -1.2406680404825081e-02
      2.8433396952274970e-02 -1.6885207484545002e-03
      2.6691223079312949e-02 -1.1397126688143317e-02
      -1.5952519006809780e-02 -5.8806588521657091e-03
      9.5671260407550040e-03 2.1924225238962213e-02
      1.2741804510001647e-03 -1.3810481912835409e-02
      -1.0267038426426140e-02 -1.2742681800802038e-02
      3.6980451002855380e-02 5.9691498267245352e-03
      -1.0624213828308990e-02 4.7329231586824345e-02
      1.6415957122996993e-02 2.3295973385572870e-02
      2.1298200911119996e-03 2.9455251271247127e-02
      -9.7669940133994475e-03 5.2327139067885530e-03
      2.5984473789376069e-02 -1.4151294021944833e-02
      -2.4510593142051899e-03 3.2075780789170387e-02
      1.8176273740870906e-02 5.3798202367703017e-03
      3.7561646627800316e-02 1.3418155428771570e-02
      2.5718970832752559e-02 -4.2176840072701428e-02
      -1.6070284490346337e-02 -1.5061702648122442e-03
      2.9308098143404845e-02 8.7287764700953712e-03
      -1.5611316465760219e-02 9.2417691250195541e-03
      -3.0283661319452714e-02 -6.9254062934309300e-03
      -1.7794347924693179e-03 -9.4752962678117236e-03
      -2.8664060822725119e-02 1.0249145693411241e-02
      -1.2814848503849013e-02 -1.1327797990395232e-02
      2.2389123131765800e-02 1.8982646049782673e-02
      -6.1697032244809796e-02 3.5462349646085821e-02
      8.6386689767754005e-03 -1.7096907882010896e-02
      -1.7345009438060451e-02 7.2426993783628782e-02
      -2.6000387207598803e-02 5.0344514810919103e-02
      3.1525955222114301e-02 1.1245298547189658e-04
      4.6524139548414487e-02 3.8556850727093507e-02
      7.8829865312827745e-03 -4.5900156211885750e-02
      1.8670277354433898e-02 1.9715783754526334e-02
      -4.6538381068726240e-03 -9.2362263648005666e-03
      7.0867979504534565e-02 -2.7680993487546164e-02
      4.7062706201145346e-02 2.0627341678296732e-02
      -7.1519033239870371e-03 6.3715096612129429e-02
      -1.1258513157832886e-01 -1.7510570990056293e-02
      9.8777785317476621e-02 5.7257413590019159e-02
      3.2873693449119404e-02 6.7858148547982569e-02
      5.0889858770915647e-02 5.3042214050857839e-03
      -6.2831346629045923e-02 -5.0581651307394400e-02
      6.3998681137019328e-02 9.6445905402219433e-03
      -2.0853941866903303e-02 -1.7853525730725725e-02
      6.5314355751872846e-02 -3.9689603513478828e-03
      1.9427111398592559e-02 6.1097785326334440e-02
      7.2859782470498388e-02 5.8392523835760331e-02
      -1.0067805744240528e-01 1.1121729462477451e-02
      -7.5080059749331837e-02 -1.2635386995552013e-02
      4.9653309513676046e-02 5.1281767178468704e-02
      -5.9567765564419808e-04 -2.3883076634485415e-02
      -5.8792451350479981e-02 -1.8789209860656984e-02
      -4.3768512136102056e-02 5.7456052778062837e-02
      8.3440711293861949e-02 -8.3959823586594776e-02
      -3.6788492244030926e-03 -1.7807150229753300e-02
      -1.0455485237309860e-02 2.6311915518095161e-04
      5.5134588211454526e-02 1.3958560424331332e-02
      5.4093272459799335e-02 7.5180935350489489e-02
      -1.2886750419262516e-02 4.6828191027296823e-02
      -4.5230439641592339e-02 -5.3798236434185402e-02
      7.3840584601055483e-05 3.5444054751408126e-02
      5.8417916067924020e-04 -5.4323997923475566e-02
      -9.6692786859424867e-02 -6.0248941241149037e-04
      -1.1175566714745053e-01 -1.0064258829214784e-01
      -2.8268579943435949e-02 -8.8304899268210595e-03
      -2.2345648817349687e-02 -3.0459732335767369e-02
      2.2630410736654449e-02 9.4508301479421001e-04
      -7.8628644215588024e-03 -6.1602054938128530e-02
      5.2825409195170543e-02 5.3323200719375394e-02
      6.6895762595531066e-02 5.2018307752432026e-02
      2.9435422659708529e-03 2.8992595719092292e-02
      6.7943109258610204e-02 -9.1221843885843548e-02
      6.3678333899510983e-02 7.4977408302055633e-03
      -2.0208098999001219e-02 -6.8206462510938051e-03
      -3.2625414958391462e-02 -3.5094277941860583e-02
      -4.3565365610785500e-02 -3.4371851161512812e-02
      1.7593862199095141e-02 -6.9967716982386435e-02
      -5.7394098408375567e-02 2.8570125844374235e-02
      4.3455164046124345e-02 3.2274392146563545e-02
      5.6555293085688255e-02 2.0177944226198702e-02
      -1.1587089884856556e-02 -9.6667450522585754e-02
      1.7782887962676488e-02 2.9550878380366734e-02
      9.1284280289522981e-03 -4.0811502968381423e-02
      -1.6712881321775407e-02 -3.5892711806691811e-02
      2.6206059739731784e-03 7.4290247624379880e-03
      -1.1837811905614582e-02 7.6857174227440393e-03
      8.1072262543504456e-03 -7.9631383480580534e-02
      2.1848186695872022e-02 -3.3025948665877033e-02
      3.0418721237291110e-02 -2.5416047358702711e-02
      9.6115360495062606e-03 -4.3886436499313064e-02
      8.8084637100852205e-03 -1.8572777638479521e-02
      -2.3475685233116248e-02 -5.3191708666435134e-02
      2.0969822576273930e-02 -4.4898404320326185e-02
      2.0256614948502664e-02 2.3009323876516823e-02
      -2.6392824315908066e-02 -2.5706983270724813e-02
      5.4149488112718172e-03 1.9495387020423891e-02
      -1.0523733368059741e-02 3.5433130119489335e-02
      3.5959352867286696e-03 -1.6525069105775938e-03
      -3.4924850834909600e-02 -2.5908504933903780e-02
      -1.5780628175437031e-02 -4.3498245486344102e-02
      -5.4541963076676749e-03 -3.7030348715579448e-02
      1.3883299393024233e-02 4.4489634246673406e-03
      -2.6133491374746999e-02 -4.9402931560186956e-02
      -2.0932763140560532e-02 -1.9490404006419739e-02
      -6.1426750124397890e-03 -6.3839444383110965e-03
      1.5936847152861408e-02 9.6738455762813008e-03
      -1.9635120735482250e-03 -2.1332648203408813e-02
      -1.8296510836363390e-02 2.5128790133461577e-02
      -3.8998562439541730e-02 -2.9069121268641387e-02
      -2.1521522974139770e-02 -5.6126748404664972e-02
      -4.4660871954674053e-02 -2.5692638857233392e-02
      4.2939279817618595e-02 6.8393320915361528e-03
      6.0939216466911111e-02 1.5676450256110173e-02
      -1.0430318345537842e-02 1.4405155434659417e-02
      -1.5227884559644920e-02 -1.2993744601973951e-02
      -4.4814709334599434e-03 3.6389226893539947e-02
      2.4048775655756097e-02 -4.6186797141828197e-02
      -3.7908706477920544e-02 4.4826237623387916e-02
      2.8259302104455448e-02 3.2871873665477010e-02
      6.5163690420475609e-03 -6.0300245826924136e-03
      2.9285484921011550e-03 -2.6468022930204720e-02
      1.1484301181899283e-02 -2.5694335609342599e-02
      4.1261064591975975e-03 1.1749114665800186e-02
      3.7615569121017663e-02 9.3179492842662970e-03
      2.6309037732997691e-02 -1.8640590977302723e-02
      -1.5075082185332211e-02 -4.3144150819730597e-03
      3.5354762417746231e-02 6.6755204285965178e-04
      5.4018482678863625e-02 2.2176775112723531e-02
      -1.5724507019245684e-02 2.5494987823480815e-02
      2.6633898141770994e-02 3.2072278734961296e-02
      -3.2034517446551086e-02 -2.8097257248947950e-02
      1.0820625840085607e-02 6.0336446373880713e-02
      -1.2832228354130407e-02 -2.3913612134040505e-02
      -5.6911193937612750e-03 -6.0952212307315505e-02
      -2.8614493066148525e-02 -6.9548295893283631e-03
      -3.6036987757228800e-02 1.8908246867061385e-02
      -7.9372462428070299e-03 2.0195243129368788e-02
      2.9770093845688905e-02 8.7697773660603325e-04
      2.2956258816771588e-02 -2.0965907899510552e-02
      4.5584785797739185e-03 1.3287967025890444e-02
      -2.9375627529488968e-02 1.6691097065160476e-02
      -9.5785465791713761e-04 1.2690803052524020e-02
      1.7411174623571512e-02 -3.2941414611647513e-02
      -1.5415451511673242e-02 2.0695052572027172e-03
      -5.1474401380261405e-03 -8.9820843741485873e-04
      -1.6455011243382302e-02 -4.3367712088635919e-03
      -1.4178920190255288e-02 4.4122172657613319e-02
      -3.4810000484353495e-02 2.3618866227622364e-03
      1.0446405559122901e-02 -3.6932047153857298e-02
      5.8001903688102898e-03 -2.4507390112559587e-02
      3.3150454781221153e-02 3.8660733199182472e-02
      -9.6998571708403133e-03 -5.1596750470438461e-04
      2.7281416019859221e-02 2.8787645354693091e-02
      -8.5712644328112791e-02 3.1058386762877151e-02
      5.0924551861563166e-02 4.1377691069031233e-02
      9.8478915783394017e-03 1.2377676638310929e-02
      2.6156767539267673e-02 6.4768954511146143e-02
      -3.8702988737874373e-03 3.6972066996246869e-03
      -1.3834250458566651e-02 -2.1929850980677654e-02
      4.1134622662016099e-04 2.1874415340471104e-02
      3.4460459109817358e-03 -1.7293760225259452e-02
      -2.4092732629746604e-02 -1.7179387400823653e-02
      2.4255396172989407e-03 -1.6727197114196769e-02
      2.2268018508780723e-02 -2.9872331376788706e-02
      -7.1471786148068748e-04 2.5986951027175581e-04
      1.7365998001021926e-02 -4.8232530813062105e-03
      4.9409623988340513e-02 -1.8296168972300041e-02
      -5.3233931579115622e-02 9.1670544465322513e-04
      -1.3964217573302918e-02 4.3492008819776065e-03
      2.6872658056847225e-02 -2.0016971384928448e-02
      1.2858443925274878e-02 2.5300610188357243e-03
      -5.6225843704987344e-02 3.1633908042158737e-02
      2.4770866070341183e-02 -7.7883453024460520e-03
      -2.0615244619154153e-02 -2.5114487817170269e-03
      -6.0201939700528619e-03 -1.8054080986620161e-02
      -1.9293374299817562e-02 6.4764254428878801e-02
      -1.4422707078759528e-02 7.6594287537382622e-02
      -4.4728697794389656e-02 1.0398736028208422e-02
      5.4204966313337578e-02 6.3757103605256299e-02
      -1.4775717715818390e-02 1.5964359520690297e-02
      -7.0427880246046182e-02 9.4141784616335981e-03
      2.5198184533261361e-02 -2.3233572580147469e-02
      8.4815005617334212e-04 2.4372217208024727e-02
      2.4740347285278887e-02 2.3681477078568228e-02
      -1.8384053024992665e-02 1.7025929065073532e-02
      1.3902144240182698e-02 5.3907308353797340e-02
      5.9766001016719771e-02 8.6629576353976796e-03
      1.8042108671917311e-02 4.6914899168437009e-03
      -4.6364578149343506e-02 -1.2162813708483548e-02
      -2.2625571691821732e-02 3.4939487401742630e-04
      4.2614309959539539e-03 1.3225546443146993e-02
      -1.9406211721280511e-02 -2.8162301815845361e-02
      1.8418274511824064e-02 -2.2869940713289513e-02
      8.9833843257904628e-03 -6.2641871790281897e-02
      -5.0580846348545386e-02 -1.6905445106271532e-03
      -2.4767662361538541e-02 -4.7342933400929647e-02
      2.3002177729845481e-02 6.2830020292335156e-02
      6.0955813599309350e-02 6.2163588954898513e-02
      1.6090649809541537e-02 3.3702352302243874e-03
      4.4932178213905683e-03 -3.8225539794400284e-02
      3.2239429554155354e-02 -9.0195155901855451e-03
      -1.8852768813533247e-02 -7.9203216962794420e-02
      2.1893544033056274e-02 5.4604501478552293e-03
      -2.9982671414261912e-02 1.2176630331048066e-02
      1.7596609351417009e-02 -1.4287298968051473e-02
      -3.4190692563778234e-02 -7.6573669061506838e-02
      1.3333116991575675e-02 -2.3868538850812571e-02
      -1.3823050191690552e-02 5.9073470766611118e-02
      8.7082676143253779e-04 1.7332611059660136e-02
      8.0391237640161563e-03 -1.2933076972468358e-02
      -5.8811131142027614e-02 -7.6355527574714005e-02
      -1.5232938465416403e-02 2.9680827346736972e-02
      4.5386816758763417e-02 2.6860873030179436e-02
      -4.9728188179914111e-02 7.1121821454561418e-02
      3.1031199887630454e-02 -1.6478218267996038e-02
      -1.9542956477051017e-02 -4.1001928974680234e-03
      1.0376724411773975e-02 -2.3458337795959256e-02
      -3.1029889726427982e-02 -1.2489770988741244e-02
      2.0321243751455421e-02 5.2259696752595917e-02
      1.3641159923157451e-02 4.2830743902858084e-02
      -1.0293827881445301e-02 1.3345518036491649e-02
      4.8072412718432678e-03 -1.4900528058364690e-02
      4.8213456577484463e-03 -2.4977933771273948e-02
      -1.2706467710064066e-02 3.0954796737073069e-02
      5.2588732705104151e-03 -1.1577656971033913e-02
      -5.4423465970792808e-03 -4.7150420233550386e-02
      -4.4733194525288289e-02 -3.7575996336320042e-02
      1.6005069421965938e-02 -3.5632315227366700e-02
      -5.4595062568734386e-03 3.2153381960069796e-02
      2.0796289008868218e-03 1.0278165441244800e-02
      -3.1369546538858421e-02 -3.5116936853686456e-02
      -7.1789999668350184e-03 -3.1629750733513347e-03
      -3.8155586583942303e-02 -2.2306184812060988e-02
      -2.5346372963530563e-02 4.0779656755957454e-03
      -2.0901052408873542e-02 -2.7517880965478508e-02
      -4.9861923137097572e-02 2.8450016058198843e-02
      -8.9101232869629610e-03 2.4309988295746519e-02
      -2.1104680684744706e-02 2.2686604972290678e-02
      -3.8955157229829383e-03 -2.0631962878746343e-02
      7.3934428019671984e-03 6.2482975163651179e-02
      -1.4004937268525074e-02 6.1294475901199465e-03
      -1.6768221360094444e-04 -1.4522410378085904e-02
      1.1439354748186224e-02 4.1760899593654775e-02
      1.1713064754571728e-02 2.5220262098435368e-03
      -3.0390022834848911e-02 2.1779892003988333e-02
      1.5975471554811438e-02 6.7967145815850984e-03
      -1.4762329970306916e-02 4.6835778563109401e-02
      5.0089236873500524e-02 1.2657622228800238e-02
      -2.0324508097644762e-02 2.7532356662102311e-02
      -2.1174790139139549e-02 4.6923772038862818e-02
      3.5241120692554695e-02 -3.4508479385511555e-02
      3.5858261369700856e-02 1.6004884964246978e-02
      1.2762670182160735e-02 2.9276690855175889e-02
      2.4866482274742616e-02 3.7517219327054742e-02
      -1.0202493902065245e-02 7.9667125934704090e-03
      2.2411300962050188e-02 8.0738046881774633e-03
      -1.7152890845543015e-02 1.6995214739242189e-03
      -1.0353594032023326e-02 -4.4088720607656492e-02
      -5.3191107649733539e-02 -1.9536308927670297e-02
      -6.0513536549593461e-03 -6.5279458554042664e-04
      3.1708314478512668e-02 2.0245275813740558e-02
      2.2063674659213106e-02 1.8691244475229216e-02
      3.4308127181481463e-02 7.9927976797588111e-03
      -1.3165602239475025e-02 -1.6897578359997559e-02
      -1.1735775850739926e-03 1.0284282862132800e-02
      -4.4692905759685575e-03 -2.9332326569703467e-02
      -9.5941932890116280e-03 2.1840496388574458e-02
      2.3367085851370144e-02 3.0671071764755597e-02
      1.5801102421984511e-02 -1.9692901534374193e-02
      -2.2512253277281746e-02 -5.7808849424251371e-03
      -1.8887762493087306e-02 -4.2030669627851562e-02
      -2.0958987647719848e-02 1.9685548785560242e-02
      -1.0723032218387784e-03 2.8631652978799021e-02
      9.1164176149426610e-03 -6.9344489658315755e-03
      -1.8623535221794888e-02 -7.5921068186850247e-03
      3.4377774867430464e-03 -2.4588612996166787e-02
      1.5887860093779765e-03 -1.1346473432435712e-02
      1.0849067537937950e-02 3.8890047582588017e-02
      5.6801719583300190e-03 -3.3248717714582342e-02
      -4.4194401985399251e-03 1.2964103530149618e-02
      -3.5461735370727825e-02 -4.4173157201539803e-02
      7.0738741784775266e-02 -5.3649966022807624e-02
      9.6110545753829834e-03 -1.5617470879679683e-02
      3.3016574400671055e-03 -1.0161244338444838e-02
      -2.6576069734555247e-02 -5.7698923185291170e-02
      3.2579598371506577e-02 2.6166804974298442e-02
      -1.0066511147170344e-03 -3.5893662017552628e-03
      -1.1786545971039007e-02 -5.1745762957272276e-02
      -3.6389401987079080e-02 7.1612967646253051e-02
      4.1257367921008863e-02 5.5325419171334392e-02
      4.0839411517034560e-02 6.9599329615481183e-03
      -2.4797294863106511e-02 6.6840376365802409e-02
      2.8551429832287072e-02 -2.6657567763645734e-02
      -6.3077573479813742e-02 1.3801485762815374e-02
      -5.1670313744843705e-03 4.8559808592411595e-02
      1.0987242810203173e-02 1.3196015170018002e-02
      7.5712933157640175e-02 9.3389287794738759e-03
      -3.4517663617665770e-02 -1.0172139711328991e-02
      2.8218209648112778e-03 3.0427985840261955e-02
      3.8598697491372465e-02 -2.4577005945262482e-02
      3.1130684435084426e-02 2.3128558452492246e-02
      -2.5027232937932735e-02 1.6720700294806559e-02
      3.4379759642962297e-02 4.0304013578857108e-02
      -3.4437273364201264e-02 -4.5138699692352728e-02
      4.8080977733017819e-03 -8.5620254628144474e-02
      6.0824463179567259e-02 -4.5799136172889679e-03
      -5.6510501062992949e-02 -6.3940995567776521e-02
      3.5456714357784337e-02 -5.2054640490901159e-02
      2.2030663990059634e-02 -4.6122222273024822e-02
      9.2892013302006519e-03 1.4265459577393409e-02
      -1.2176685386522345e-02 -5.0349179746323323e-02
      -2.6465964439060356e-02 -3.0364720371895620e-02
      -8.4143242330483141e-03 2.0991359734787416e-02
      2.9176976143133700e-02 -4.6346888222999816e-02
      -9.7965458874254938e-02 3.7072242475985118e-02
      -1.6529191259269854e-02 7.1463914879595766e-03
      5.4900590679958478e-02 2.6322697763527955e-02
      -7.8021606067091454e-03 -5.1237268092647649e-02
      -8.7778186467456637e-03 -2.0118177567673038e-02
      -1.4267216296620171e-03 -7.8866543704700139e-03
      2.7220430767114549e-02 -2.0337587613589021e-02
      1.3951036471942216e-02 2.5280486235235877e-02
      6.4191906531588738e-02 2.5823381651881843e-02
      4.8011301845244873e-02 1.8296976396628622e-02
      -5.1399201044779255e-02 -5.5561587149660016e-02
      -4.4157512608831981e-02 -4.0704719136121052e-02
      -5.0870403314866898e-02 1.8421181882919024e-02
      -1.3746277875889435e-02 -1.8257761973803920e-02
      -4.7029705855383262e-02 9.7783758064555557e-03
      4.1120682012241325e-02 3.6073894885922879e-02
      -3.4456848866094424e-02 -2.5578457023412826e-02
      -9.9408922552544107e-04 -4.9867784094001444e-02
      -9.2100729273095867e-04 -2.2154541746375570e-03
      1.4533506281535416e-02 5.7455667435577312e-02
      2.6337760524156172e-02 5.0076796012525321e-02
      1.4616924522292825e-02 1.4688321915218875e-05
      2.7714705291640523e-02 -7.0834781081803022e-02
      3.5096591112433545e-02 3.2981246660236774e-02
      6.2512528820177798e-02 3.0747465825633966e-02
      -2.1707394776790487e-02 1.2440727101561832e-02
      -3.9138748063907380e-02 1.5716318433248663e-02
      4.9816753378048188e-02 -4.9725105331552298e-02
      -1.0167584088211525e-02 2.7234306126222841e-02
      2.2821261215081164e-02 -2.1143273866420773e-02
      3.3432667879274812e-03 5.0827496062887959e-02
      -6.7411754986910211e-03 2.2617180312045949e-02
      1.3507701482607930e-02 -1.2711865047317108e-02
      4.2542755302950631e-03 -7.9551615304094860e-03
      8.0122360301707694e-03 -3.0225847879745603e-02
      3.0211199368309048e-02 -1.7175981790666199e-02
      3.4074144554354688e-02 -1.3272512231962479e-02
      -2.5274854136610899e-02 -1.2554912269300833e-02
      1.3735373064207015e-02 -8.7102018810993678e-03
      2.8910849746672910e-02 4.8961160285780257e-02
      5.1382223002284814e-03 -6.9679090561481864e-03
      -1.1594611656945343e-02 2.4203130550303150e-02
      3.8329131750111413e-02 -8.4792343147966701e-03
      -2.0370777987431740e-02 -7.1395315942032614e-03
      2.7758284106454961e-02 6.0781270521678065e-03
      3.9330919228755493e-02 4.6393162486123895e-03
      6.1786393184012960e-02 4.3797381335265824e-03
      -3.8671407056662464e-02 1.4291132651630395e-02
      -8.5442517721440250e-03 1.0693995575257301e-02
      3.6574766390416569e-02 4.5996029375446673e-03
      -1.1757734766045799e-02 2.8116998727203264e-02
      -9.5075405375558870e-03 -9.6376480014990877e-03
      3.5454691178466738e-02 4.0394380103787500e-02
      -5.1413741432195575e-03 -1.5811712671052382e-02
      -3.7828172140812459e-02 -5.1634682046646521e-02
      2.3110499636736823e-02 -1.5536126811264908e-02
      8.3612626238184200e-03 -4.5920099145683201e-02
      -8.7191712025815448e-03 -1.5450250180999117e-02
      2.0881117691401992e-02 -2.4584843226014126e-02
      2.4639017254802317e-02 -2.1782633274973043e-02
      -9.6306585136948387e-03 -2.7128291590449587e-02
      -6.7570743869366911e-03 -2.7355392714839798e-02
      -2.5564017705780536e-02 1.4178893881561740e-02
      -7.7793081288150970e-03 -1.6991977618976122e-02
      -4.4225591619633207e-02 3.2223143486802025e-02
      -2.8274110985634805e-02 -2.1929095608346341e-02
      3.3787582249598068e-02 -2.1066385085234006e-03
      2.0408855677711064e-02 3.3529226319274951e-03
      -3.0333884868288852e-02 -3.1993643585544809e-02
      -3.0194542236429086e-02 -8.5639511264474361e-03
      -2.7455213118268259e-02 -1.4478028072766200e-02
      -3.1937881284242561e-02 2.8307747992604135e-02
      2.9930851765095523e-02 -1.8372251784967264e-02
      -1.2009459686174862e-02 1.5121001475366734e-02
      -1.0900743611954323e-02 2.0797061352311311e-02
      -2.5915912085273077e-03 -4.2039982132522864e-02
      -4.1531596199004588e-02 2.9154027293333509e-02
      3.6367569950308813e-02 9.9795708761586874e-03
      8.3554913219753418e-03 1.5258940696997148e-02
      -3.4149253077405068e-03 1.7888358190308911e-02
      8.0795877181547033e-03 -1.0337148601554167e-02
      -3.4483816939081431e-03 -4.6752394322278151e-02
      -1.3616799184343992e-02 -4.6719366993579037e-02
      -3.3075303191113875e-02 1.6970914408201910e-02
      -1.6490660613100030e-02 3.3445354479589302e-02
      9.8538475641519400e-05 -1.8624705519254787e-02
      1.3179640235276685e-02 -6.3394070961928256e-02
      1.1066621101401553e-02 5.2250699356055112e-03
      7.1698005979358133e-03 3.7717445040177711e-02
      -5.6116554954318641e-03 -6.8284289107829075e-03
      -5.1814378260557153e-02 4.4250229860661608e-03
      2.9325960777598175e-02 -1.0750529881682290e-02
      -3.0700298415921347e-02 2.5237108459327036e-02
      -4.5358024808252184e-04 -3.9591735717965405e-03
      -1.8937894647787671e-02 -7.4784367674113859e-03
      2.5813171835554330e-02 -1.6197289294525293e-02
      -1.1245521861668899e-02 1.1303132076321550e-02
      1.3599404210467941e-02 -2.6968636633383971e-02
      3.7716080120331189e-02 8.5393300393386412e-03
      1.3613247727752773e-02 -5.2510892154235779e-03
      -4.7498583685639958e-02 -2.8455314694088751e-02
      -5.4283457605282066e-03 1.5555286920929893e-02
      1.0775743576349752e-02 -1.7141615521474462e-04
      -2.4442569989741359e-02 -2.9143027056511884e-02
      -3.1574411960568816e-02 2.4006632184516260e-02
      -1.4535609413703774e-02 -4.6422449268391452e-02
      2.5813073552967707e-04 -4.3926082026245664e-02
      4.2224125335341534e-02 -2.4126141340788197e-02
      -4.7192140648218188e-02 -6.0580630375280074e-02
      2.3112937419589720e-03 -6.4954294537558068e-03
      -1.5012947950237070e-02 -6.6122724014022558e-03
      1.4254804073028069e-02 1.5121894254498700e-02
      -3.1742098658741301e-02 3.0019424532038614e-02
      -4.3488962104170220e-03 -1.7546785994847901e-02
      -1.5593077251661333e-02 1.9161723233686780e-02
      -3.7894785180491303e-02 -1.0820198521608499e-02
      -6.7837977193899890e-02 -2.5650751862046885e-02
      7.5217952557677617e-02 3.5987064502265617e-02
      3.4090979260646276e-02 -2.3326892187595392e-02
      -3.6756955627986615e-02 1.2193847090630072e-02
      2.9924231430415945e-02 3.4670005554223705e-02
      1.8962616987623221e-02 3.0500926066093389e-02
      2.3604159365815821e-03 -8.5264740451573458e-03
      -6.2818056952174933e-02 -9.4675312366791396e-04
      1.7415132191745779e-02 6.1972370802429386e-03
      -2.9053219136297492e-02 2.7063995966262338e-02
      -5.1265727197377254e-03 -3.4761369478168033e-02
      -5.0025473450418391e-02 -7.7469722117152987e-02
      -1.1373032612166893e-02 -2.9993565442112697e-02
      -4.4303188176521690e-03 6.0369045514623940e-03
      -8.3952665015636693e-03 -2.2500685743169825e-03
      -1.2409492176810148e-02 3.9583741578872914e-02
      7.4506217029598143e-02 4.3975114262977018e-03
      5.5340871881181863e-02 7.5954794264051023e-02
      9.7168493796279919e-03 -1.7488270619405472e-02
      5.8542368652154380e-03 3.4030823610145193e-02
      -1.2836878478982442e-02 3.3148158149658297e-02
      2.9877796208531690e-02 3.5423465434025005e-02
      -4.2926930643695016e-02 -2.6834350248297008e-02
      -4.8207575422898302e-02 -3.0270542365063144e-02
      -2.9403025838559284e-02 -1.8919357714776554e-03
      -3.0710016180958845e-02 2.6827956222840309e-02
      -4.8224562823208014e-02 -7.7964040835381320e-03
      2.0069884858155543e-02 -1.6475316735806402e-02
      2.8542428014266662e-02 3.2745077380513389e-02
      8.4366221616412312e-03 4.3667794315430455e-02
      -2.5127125770854748e-02 8.5160605469147138e-03
      -1.7817538366394277e-04 1.1685705464182322e-02
      -3.8300405287278461e-02 -4.0048533463415255e-02
      -1.0460190587674442e-02 -2.8027426037796773e-03
      3.2926304011500256e-02 5.0567560187065368e-02
      -2.1307512262027008e-02 -3.1507180869097942e-02
      2.7812131795689828e-03 4.7558497164265835e-02
      3.2818734253863102e-03 4.1653718555185286e-02
      1.4811462765984149e-02 -2.8433726502524390e-02
      -4.6460626254314292e-03 -1.8027427291225081e-02
      -7.2180540979841007e-03 3.2249116445264257e-02
      -2.4295841582705743e-02 1.0010921685623285e-02
      -2.3570121992917878e-03 4.2384807407216382e-02
      6.2917525493903323e-02 -3.6476741003092124e-02
      -2.2198094402609746e-02 -3.4487425947543671e-02
      -1.3200269312224981e-02 -4.3148279564049506e-02
      -4.9838124224866375e-03 -8.4755889873662824e-02
      -1.3789826540993323e-02 1.4520737697430364e-03
      -2.1631079470070719e-02 2.7423209165842254e-02
      -6.0695743904291048e-02 3.3989435610856031e-03
      -5.6790882707118982e-02 3.5600310242763757e-02
      1.3581298501409995e-02 1.4996896622473128e-02
      4.7727273295735492e-02 5.6621812840517059e-02
      7.5237483236077817e-04 5.5097041433813949e-02
      -4.4341411942626545e-03 -3.3762465225882575e-02
      1.0221052232596088e-02 4.0893669009233399e-02
      -3.1398176163028341e-02 -9.3662114852269916e-03
      6.3683494053591652e-02 8.0534049856059264e-04
      6.3170524375695092e-02 1.7849741696871379e-02
      6.9267916682915331e-03 2.1409350333497702e-02
      8.6979737680163462e-03 -1.4305058524858394e-02
      5.3788545911590470e-02 -2.1721637066164777e-02
      -2.5469838740459667e-02 -9.0551505395554000e-03
      -1.5214282476811482e-02 -3.4777980760256018e-02
      -1.4244898501115915e-02 2.0909146285029670e-02
      6.1789399605305308e-02 -7.1586738686510318e-02
      3.8591459984982805e-02 -3.8061748770624411e-02
      5.4017310329231710e-02 3.8840972163284138e-02
      -4.9597565879682316e-02 -6.8644224626899716e-02
      2.4743235741970054e-02 -1.8175156119465546e-02
      5.2570846474888182e-02 -1.7101578552836161e-02
      -7.3208143408350829e-02 4.8844347212078469e-02
      -3.4365594788204203e-02 1.4066010366414262e-03
      -4.5808039015134215e-02 -3.1846950814754603e-02
      -8.3637820282207922e-03 6.9564281945327811e-03
      -9.9095432939730471e-03 -5.8026780156647265e-02
      -5.3400349196808215e-02 2.6667379063800081e-02
      -5.5752270647335712e-02 -1.3923527227809585e-03
      3.6865037657409505e-02 -1.1634913716846875e-02
      -1.9951125992000149e-02 2.7054307590958795e-02
      -1.3482565021634553e-03 -4.9047342891932683e-03
      1.1463493992356267e-02 5.8613575560852907e-02
      1.9853273898501073e-02 -1.5429581728568230e-02
      2.2429887888797195e-02 7.3061227113950508e-02
      8.5784944433665092e-02 3.4461576478145108e-02
      -4.6540905845102558e-03 4.8602103456733270e-02
      -6.5650028705706673e-02 -4.4875107454002687e-02
      -8.2346937712903676e-02 -1.1489038162373091e-01
      -2.7410771670335982e-02 7.3380458833709463e-03
      -2.5974126531008581e-02 3.3659778576787813e-02
      -6.5019969146219103e-02 2.0224452455460916e-02
      6.4473445974801286e-02 5.9067189696520396e-02
      2.1280914569084052e-02 -2.3320047936377302e-02
      -1.3442019910985495e-02 1.1169126264064754e-02
      -3.6290304162663031e-02 -2.1096531516011277e-02
      4.6272440636306755e-02 9.4473928571614602e-02
      1.0808983767534837e-02 1.8543435296095874e-02
      -1.4032936288469414e-03 -3.2858868164768219e-02
      1.1368753927584158e-02 2.9984914397638359e-03
      -8.8990670419270314e-03 3.8867436795630809e-02
      2.6985680138992770e-02 1.0129773705983118e-01
      1.2277214053554589e-02 3.0195203502008574e-02
      -5.8267816351139354e-02 -6.6932250207174110e-03
      5.6321238036968563e-02 -6.0239801381770090e-02
      -3.1071789457749341e-02 4.5284144301635458e-02
      -4.1018474371819179e-03 1.4485111911723851e-02
      -6.5042660819666460e-03 3.5815863552918950e-02
      -6.9481119154381404e-02 6.1442191749177498e-02
      -6.5990850180604535e-03 4.5628986774855010e-02
      -2.2974151295818698e-02 1.7966449058516047e-03
      1.9982274901898543e-02 8.1507731691745383e-02
      -2.5226176347099252e-02 -9.9606746607764085e-03
      -4.0220958258427690e-02 7.0894435625257013e-03
      -4.2045367804861115e-03 4.0110010823110553e-02
      -9.1435861416920509e-03 -2.4230590908230199e-02
      -9.2559370573813259e-03 -5.3186036676273592e-02
      -2.8873400941902782e-02 -5.1004374466788675e-02
      2.5575889885001823e-02 -3.3270885870112940e-02
      -4.4713328176919108e-02 -3.1139393529894571e-03
      9.1876775342679459e-03 7.9353639629665303e-03
      1.7203603471496975e-02 -1.1177248222104559e-02
      -3.2801336593098904e-02 -1.8285618402407888e-02
      -6.0000032760360984e-02 -4.3468729914666750e-02
      2.8886586812619047e-02 1.7091037122514124e-02
      -1.8362402018362240e-03 2.6749580789824104e-02
      -4.5833812935179165e-02 3.3361338477478110e-02
      2.0715397443977074e-02 8.8664059898523242e-03
      -6.5801837194596350e-03 5.4488583883673773e-03
      -1.1340654572084507e-02 -6.9824501493909882e-02
      -3.1525293262266874e-03 6.0169572461439662e-02
      -2.9899772994500660e-02 4.6238930770163132e-02
      -2.0805403250990357e-02 -4.2133807950663640e-02
      5.2054147714568795e-03 5.5182609418582058e-02
      -4.5598138392908077e-02 1.0622444994565687e-03
      -1.0546840802467232e-02 1.2105849031157965e-02
      1.9674466012914203e-02 -3.2339818534377784e-02
      -3.0923642956271727e-03 5.6749159094382141e-02
      6.4973334501433194e-02 4.0170042586169546e-02
      -5.8174916078236223e-03 -9.9034963677994328e-03
      1.5732782971339478e-02 2.7681485134446081e-02
      7.1378689794946298e-02 -3.7777906532883251e-02
      2.3858013786807259e-02 1.2255847044624150e-02
      -4.2871932071536209e-02 1.7097130352140399e-02
      1.8835284813977188e-02 4.4008742094079289e-02
      1.3154383783376626e-02 -4.2002727004841391e-03
      1.8046520564994607e-02 -2.7127762993383996e-02
      1.1231426883842014e-02 1.1086249814010658e-03
      1.2225529795142145e-02 -1.9315994789671272e-02
      -6.9065789117285392e-02 1.3358863314675503e-02
      -5.7181642899594133e-02 -1.8240876799206072e-02
      3.5736746367461103e-02 5.6222535048046092e-02
