<?xml version="1.0"?>
<opencv_storage>
<opencv_ml_svm>
  <format>3</format>
  <svmType>C_SVC</svmType>
  <kernel>
    <type>LINEAR</type></kernel>
  <C>1.</C>
  <term_criteria><iterations>100</iterations></term_criteria>
  <var_count>13</var_count>
  <class_count>3</class_count>
  <class_labels type_id="opencv-matrix">
    <rows>3</rows>
    <cols>1</cols>
    <dt>i</dt>
    <data>
      0 1 2</data></class_labels>
  <sv_total>3</sv_total>
  <support_vectors>
    <_>
      3.78137222e-03 6.67429855e-03 3.46204528e-04 -1.19559551e-02
      -1.54453050e-03 -1.25002640e-03 1.57732656e-03 4.51560802e-04
      3.64953943e-04 4.91502509e-03 -5.03738702e-04 -4.28507105e-04
      -1.32707097e-02</_>
    <_>
      3.47969215e-03 -1.00066361e-03 2.30397112e-04 -1.40292337e-02
      -3.31822271e-03 5.43503556e-03 8.69350228e-03 -2.20857022e-04
      3.11934785e-03 -1.09580429e-02 1.00166246e-03 4.77846339e-03
      -1.07488446e-02</_>
    <_>
      -3.91599518e-04 -1.65347103e-03 -3.59902624e-04 7.61456249e-05
      5.83053380e-03 1.14795833e-03 2.00663856e-03 -1.63534598e-04
      4.56927344e-04 -5.61669236e-03 8.71545170e-04 2.16695061e-03
      3.27502121e-03</_></support_vectors>
  <uncompressed_sv_total>15</uncompressed_sv_total>
  <uncompressed_support_vectors>
    <_>
      1.32399998e+01 3.98000002e+00 2.28999996e+00 1.75000000e+01 103.
      2.64000010e+00 2.63000011e+00 3.19999993e-01 1.65999997e+00
      4.36000013e+00 8.19999993e-01 3. 680.</_>
    <_>
      1.24700003e+01 1.51999998e+00 2.20000005e+00 19. 162.
      2.50000000e+00 2.26999998e+00 3.19999993e-01 3.27999997e+00
      2.59999990e+00 1.15999997e+00 2.63000011e+00 937.</_>
    <_>
      1.31099997e+01 1.89999998e+00 2.75000000e+00 2.55000000e+01 116.
      2.20000005e+00 1.27999997e+00 2.59999990e-01 1.55999994e+00
      7.09999990e+00 6.10000014e-01 1.33000004e+00 425.</_>
    <_>
      1.19600000e+01 1.09000003e+00 2.29999995e+00 21. 101.
      3.38000011e+00 2.14000010e+00 1.29999995e-01 1.64999998e+00
      3.21000004e+00 9.90000010e-01 3.13000011e+00 886.</_>
    <_>
      1.32399998e+01 2.58999991e+00 2.86999989e+00 21. 118.
      2.79999995e+00 2.69000006e+00 3.89999986e-01 1.82000005e+00
      4.32000017e+00 1.03999996e+00 2.93000007e+00 735.</_>
    <_>
      12. 9.20000017e-01 2. 19. 86. 2.42000008e+00 2.25999999e+00
      3.00000012e-01 1.42999995e+00 2.50000000e+00 1.38000000e+00
      3.11999989e+00 278.</_>
    <_>
      1.38400002e+01 4.11999989e+00 2.38000011e+00 1.95000000e+01 89.
      1.79999995e+00 8.29999983e-01 4.79999989e-01 1.55999994e+00
      9.01000023e+00 5.69999993e-01 1.63999999e+00 480.</_>
    <_>
      1.31599998e+01 3.56999993e+00 2.15000010e+00 21. 102.
      1.50000000e+00 5.50000012e-01 4.30000007e-01 1.29999995e+00 4.
      6.00000024e-01 1.67999995e+00 830.</_>
    <_>
      1.24499998e+01 3.02999997e+00 2.64000010e+00 27. 97.
      1.89999998e+00 5.79999983e-01 6.29999995e-01 1.13999999e+00
      7.50000000e+00 6.70000017e-01 1.73000002e+00 880.</_>
    <_>
      1.43000002e+01 1.91999996e+00 2.72000003e+00 20. 120.
      2.79999995e+00 3.14000010e+00 3.30000013e-01 1.97000003e+00
      6.19999981e+00 1.07000005e+00 2.65000010e+00 1280.</_>
    <_>
      1.43800001e+01 1.87000000e+00 2.38000011e+00 12. 102.
      3.29999995e+00 3.64000010e+00 2.89999992e-01 2.96000004e+00
      7.50000000e+00 1.20000005e+00 3. 1547.</_>
    <_>
      1.22500000e+01 3.88000011e+00 2.20000005e+00 1.85000000e+01 112.
      1.38000000e+00 7.79999971e-01 2.89999992e-01 1.13999999e+00
      8.21000004e+00 6.49999976e-01 2. 855.</_>
    <_>
      1.38800001e+01 5.03999996e+00 2.23000002e+00 20. 80.
      9.80000019e-01 3.40000004e-01 4.00000006e-01 6.80000007e-01
      4.90000010e+00 5.79999983e-01 1.33000004e+00 415.</_>
    <_>
      1.29899998e+01 1.66999996e+00 2.59999990e+00 30. 139.
      3.29999995e+00 2.89000010e+00 2.09999993e-01 1.96000004e+00
      3.34999990e+00 1.30999994e+00 3.50000000e+00 985.</_>
    <_>
      1.22900000e+01 2.82999992e+00 2.22000003e+00 18. 88.
      2.45000005e+00 2.25000000e+00 2.50000000e-01 1.99000001e+00
      2.15000010e+00 1.14999998e+00 3.29999995e+00 290.</_></uncompressed_support_vectors>
  <decision_functions>
    <_>
      <sv_count>1</sv_count>
      <rho>-1.1449521020313334e+01</rho>
      <alpha>
        1.</alpha>
      <index>
        0</index></_>
    <_>
      <sv_count>1</sv_count>
      <rho>-9.6848029398808890e+00</rho>
      <alpha>
        1.</alpha>
      <index>
        1</index></_>
    <_>
      <sv_count>1</sv_count>
      <rho>2.6955176604887967e+00</rho>
      <alpha>
        1.</alpha>
      <index>
        2</index></_></decision_functions></opencv_ml_svm>
</opencv_storage>
